1889 128
1344 -0.036025 0.383479 -0.320932 0.243428 -0.296615 -0.046408 -0.034477 0.153315 -0.317391 0.116695 0.088244 -0.025237 -0.206650 -0.052704 0.241622 -0.185502 -0.171509 -0.097619 -0.147242 0.308506 0.052267 -0.398634 -0.090691 0.066298 0.038935 -0.040364 -0.090831 0.188936 -0.248051 0.082453 0.167035 -0.084188 -0.191501 -0.218906 -0.047549 0.084101 0.014291 -0.125577 0.171131 -0.150370 0.389663 -0.257144 -0.038159 0.309028 -0.114777 -0.163108 -0.078219 0.239139 0.246043 -0.108899 0.321389 0.194881 -0.190473 0.201365 0.167380 -0.286518 0.279608 -0.065263 0.178617 0.091786 -0.496688 0.344761 0.072228 -0.123780 0.025445 -0.306220 -0.120455 -0.123840 0.041299 -0.217009 -0.296051 -0.101102 -0.239070 0.105888 0.052048 0.098061 0.019815 -0.161509 -0.037404 -0.196346 0.096920 -0.454747 -0.253370 -0.160608 -0.137464 0.193393 -0.144052 0.134158 -0.103294 -0.172076 -0.210116 0.007348 0.391952 0.016860 -0.246886 -0.176613 0.078871 0.112946 -0.194195 0.096675 -0.097614 0.562808 -0.230002 -0.091631 0.086826 -0.110852 0.270429 -0.160988 -0.209116 -0.424233 0.229347 -0.012581 -0.034735 -0.050534 -0.262518 0.100014 0.068261 0.267127 -0.046573 -0.003162 0.156904 -0.191657 0.085002 0.066918 -0.149111 -0.101537 -0.034852 -0.356733
839 0.245440 0.295886 -0.410624 0.235072 -0.012008 0.204026 -0.259985 -0.069944 0.139653 -0.083003 0.083093 -0.026024 -0.315632 0.053642 0.055787 -0.010036 0.011725 -0.031059 -0.343381 0.054687 -0.099782 -0.313102 0.060745 -0.091504 0.407795 0.103825 -0.305254 0.061800 -0.271728 0.131780 0.098963 0.363481 0.148371 -0.136723 0.052371 0.218228 0.075311 0.007492 0.042086 -0.150450 0.259358 -0.239664 0.105074 0.425611 -0.638585 -0.030948 -0.065240 0.117198 0.252458 -0.256582 0.273541 0.105663 -0.146657 0.141228 -0.266700 -0.126742 0.207231 -0.152860 -0.014414 0.262710 -0.204286 0.174562 0.233990 0.243343 0.212996 0.252489 -0.044520 -0.211040 0.097795 -0.088412 -0.203720 -0.317896 -0.110180 -0.067346 -0.101283 0.095820 0.019451 0.091950 -0.276908 0.155361 0.081510 -0.256730 -0.235113 0.133529 -0.356113 -0.315437 -0.014774 -0.060937 -0.081049 -0.055602 0.106902 0.210961 0.127585 0.150482 -0.067779 0.043668 0.363795 0.256867 0.005953 -0.114278 -0.138278 0.559118 -0.182522 -0.585912 0.090283 0.049842 0.060480 -0.106899 -0.467437 -0.143726 0.115912 0.097586 0.067909 0.147323 0.266446 0.145999 -0.185435 0.156020 -0.232241 -0.112293 -0.003535 -0.019544 -0.051383 0.235872 -0.013507 0.212419 -0.297243 -0.232466
1059 -0.223803 0.108546 -0.589183 0.159912 -0.011560 0.145768 -0.173116 0.299486 0.109141 0.069880 -0.036451 -0.286860 -0.185552 0.086443 0.116750 -0.071220 -0.026343 0.036387 0.061428 0.338033 -0.298996 -0.052538 0.062381 0.000981 0.277089 0.116258 -0.008717 -0.058077 0.037036 0.159919 0.421965 -0.055169 -0.217683 -0.243050 -0.343175 0.036727 -0.124053 -0.168112 0.126587 0.065432 0.265811 -0.510700 0.265648 0.470004 -0.049625 -0.071508 0.031896 0.374978 0.138301 0.009701 0.302489 0.017383 0.200238 0.195159 -0.033320 0.030900 0.353309 0.113645 -0.024056 0.023873 -0.243990 0.219789 -0.058315 -0.304031 -0.147049 0.019597 -0.234991 0.097080 0.069923 -0.115871 0.008087 -0.220528 -0.044635 0.131361 0.062866 0.230780 -0.278824 0.012116 -0.056371 -0.269865 0.003749 -0.260010 -0.097773 0.172994 -0.289070 0.147257 0.059267 0.227686 -0.116712 -0.275866 0.069853 -0.102092 0.187731 0.043935 -0.196596 -0.193172 0.238343 -0.038538 -0.220901 0.140528 0.220162 0.490629 -0.062941 -0.188963 0.015952 0.290681 0.308520 -0.075278 -0.186042 -0.196089 -0.002322 -0.205521 0.071859 -0.024715 -0.025550 0.000485 0.149013 0.164752 -0.208747 -0.311868 0.165290 -0.070221 0.024881 0.349253 -0.341841 0.038869 -0.100272 -0.286715
1692 -0.146725 -0.006945 -0.665979 0.552175 -0.247995 0.341836 0.093266 -0.259324 0.085221 -0.208191 -0.020281 -0.145431 0.007708 -0.187007 0.091248 0.064569 -0.033290 0.072946 -0.188490 0.163427 -0.018634 0.001439 -0.316801 0.336473 0.117379 -0.006465 -0.017420 -0.218654 0.065935 0.159064 -0.163365 -0.155232 0.066952 0.083160 -0.219975 0.322335 0.079911 0.222707 0.010244 0.078332 0.295673 -0.216333 -0.030138 0.342423 0.113153 -0.013537 -0.029514 0.281411 0.007545 -0.218470 0.412206 0.253116 -0.198482 0.021264 0.050875 -0.451253 0.296912 -0.219306 -0.168623 -0.012712 -0.201371 0.483788 0.312949 0.044635 0.218326 0.014086 -0.213211 0.107199 0.226387 -0.023680 -0.284860 0.102936 -0.520541 -0.337211 -0.168979 0.199332 0.027045 -0.059668 0.146307 0.172116 0.175483 0.107406 -0.300727 0.098183 -0.296803 0.100048 -0.383460 0.193286 0.035086 -0.135190 0.217849 -0.112035 0.152976 -0.221806 0.012008 0.001662 0.117971 0.238804 0.226141 0.034423 -0.000352 0.234534 0.029434 0.087460 -0.126682 0.240547 -0.176775 0.145116 0.202829 -0.471301 -0.073034 -0.162535 0.163462 0.185357 0.115213 -0.097903 -0.114046 0.365067 -0.337912 -0.424237 0.065619 -0.522852 0.396195 0.030133 -0.224316 0.186421 0.380770 0.160985
988 0.020082 0.327780 -0.444591 0.097551 -0.139614 0.129848 0.062203 -0.119965 -0.085315 0.076796 -0.238876 0.038129 -0.383187 0.121702 0.048297 0.128349 0.218070 0.168209 -0.062621 0.204591 0.129454 -0.393767 -0.193523 0.289630 0.288362 0.187102 0.179372 0.180880 -0.099950 0.078324 0.134806 0.097721 0.007346 -0.115094 -0.194624 -0.129032 -0.013224 0.189851 0.417714 0.119008 -0.193876 -0.068493 0.003129 0.352072 0.023204 -0.112286 -0.146486 -0.088415 0.543232 -0.322997 0.039195 0.272237 0.204167 0.004596 0.182181 -0.310370 -0.071088 -0.098477 0.143510 -0.150534 -0.163214 0.196830 0.019569 0.210845 -0.204836 -0.275510 -0.075856 0.034139 -0.142633 -0.256081 -0.458334 -0.299966 -0.150965 0.173018 -0.147916 0.226836 -0.049739 -0.308052 0.071972 -0.247189 -0.014862 0.107323 -0.472254 0.228838 -0.103514 -0.100608 -0.073908 -0.160374 -0.091891 0.051585 -0.190784 -0.085000 -0.258015 -0.214934 -0.277508 -0.108147 0.235215 0.292713 0.155965 -0.451263 -0.057270 0.427333 0.090833 -0.358402 -0.048111 -0.243034 -0.070581 0.163971 -0.149357 -0.165603 -0.370282 -0.122899 -0.120441 -0.138253 -0.115811 -0.039492 0.035295 0.364687 -0.082019 -0.343953 -0.070483 0.063661 0.246191 0.211674 -0.222712 0.289861 0.097266 -0.323573
370 -0.283553 0.000637 -0.510914 0.429986 -0.297520 0.117606 -0.239405 -0.332754 -0.166324 -0.281120 0.008386 -0.266521 0.108768 -0.109701 0.335839 -0.128753 0.064991 -0.112254 0.125412 -0.048454 -0.255762 -0.128702 -0.362162 -0.148733 0.255709 -0.195040 0.027458 -0.054007 0.024375 0.051556 -0.069288 0.055690 0.096065 0.215421 -0.316552 -0.172292 -0.157581 0.017371 -0.221434 -0.050370 -0.016950 -0.069254 0.161447 0.091683 -0.106230 -0.209084 -0.149017 0.318378 0.446421 -0.173749 -0.019749 -0.139779 -0.019615 -0.064689 -0.021133 -0.380642 0.057386 -0.007552 0.197994 0.184638 -0.204872 0.121104 -0.274385 -0.082347 0.057411 0.074319 -0.287028 -0.061814 0.061693 -0.409246 -0.219701 -0.020850 -0.037091 0.093780 0.149838 -0.014961 -0.294775 0.060802 -0.155730 0.162264 0.279386 0.146613 -0.499496 0.371148 -0.051214 0.043051 -0.002667 -0.149907 -0.297803 0.174219 -0.276528 -0.192806 0.055913 -0.217836 -0.087486 0.009896 0.178629 0.249884 -0.091186 -0.310859 -0.228281 0.183921 -0.148955 -0.490171 0.071285 -0.167470 -0.224516 0.127712 -0.146686 -0.085905 -0.130930 -0.063765 -0.303297 -0.017278 0.099349 0.149376 -0.193377 -0.050139 -0.094636 -0.487497 0.374905 -0.052669 0.171166 0.137919 -0.448818 -0.204421 -0.070766 -0.215586
1715 -0.005951 0.362379 -0.307671 0.594698 -0.214165 0.239469 0.017097 0.089997 -0.017969 0.039455 0.057666 0.093017 -0.166796 0.368475 0.017631 -0.182759 0.131592 0.066054 -0.326081 0.167695 -0.139109 -0.060735 -0.257099 -0.161917 0.087510 0.010383 0.013610 -0.052354 0.064727 -0.139987 0.158275 -0.134565 -0.133337 -0.305307 0.130401 -0.090555 -0.109292 -0.173564 -0.132231 -0.116630 0.268688 -0.185895 -0.012271 0.418671 0.222404 0.334150 0.131746 0.100418 0.370322 0.007512 0.146038 0.030342 -0.110558 0.226777 -0.261377 -0.260209 0.217523 0.118187 -0.152431 0.040287 0.053107 0.262462 0.086658 -0.187494 -0.032462 -0.064772 -0.291765 -0.128289 -0.429828 -0.103044 -0.282749 -0.029505 0.135176 0.110174 0.258489 0.256146 0.037739 -0.003661 -0.153129 0.005773 0.057026 -0.141147 -0.259773 0.067377 -0.429799 0.079058 0.097677 0.470501 0.098860 -0.060079 -0.003530 -0.118225 0.073036 -0.197216 -0.282907 -0.194323 0.422501 0.297331 -0.034103 -0.127488 -0.200827 0.221418 -0.608919 -0.101457 0.049677 -0.357999 -0.036861 -0.083972 -0.467131 -0.172982 0.307661 -0.091000 -0.327161 0.003859 -0.164574 0.037513 0.083812 0.388081 -0.171595 -0.331617 0.201943 -0.136847 0.022553 -0.333641 -0.009262 -0.201267 0.021370 -0.140773
1238 0.005331 -0.065259 0.107618 -0.074313 -0.314368 0.152254 -0.273364 -0.170765 -0.113151 -0.175956 0.118339 -0.193687 0.466125 -0.320890 -0.116086 -0.374850 0.441758 -0.042543 -0.252349 0.246244 -0.024720 0.147335 -0.130879 -0.298978 -0.036576 -0.269625 0.462401 0.241379 0.012760 0.109141 -0.178325 0.282250 -0.329556 0.243661 0.550742 -0.339996 -0.159505 0.486314 0.004902 0.009529 0.187275 -0.174256 -0.050774 0.027850 0.254829 -0.004204 0.049378 0.529301 -0.218829 -0.196532 0.153612 0.078470 0.125593 0.420908 -0.009709 0.384416 0.070050 -0.329977 0.138245 -0.115167 -0.237647 0.184737 0.125741 -0.253853 -0.198667 0.208377 -0.040868 -0.255048 -0.132795 -0.356276 0.034081 -0.137326 -0.470344 0.016677 -0.347015 0.151396 -0.244271 -0.834502 -0.063361 -0.119473 -0.042117 -0.312921 -0.087962 -0.205171 -0.177195 -0.346339 -0.059309 -0.073510 -0.017556 -0.235511 -0.223170 0.326129 0.162434 -0.308895 0.001750 -0.156243 0.652731 -0.182313 -0.129215 -0.210737 0.060969 0.119660 -0.531406 -0.083747 -0.112925 0.047107 -0.097073 0.007469 0.345890 -0.340055 -0.112617 0.304391 0.302750 -0.454224 0.451981 0.062667 -0.008603 0.452530 -0.580691 0.017331 0.449864 -0.120635 0.162163 -0.336941 0.100814 0.007335 -0.168086 -0.172383
232 0.116875 0.171582 -0.425844 0.253284 -0.053775 0.232320 0.023122 -0.137352 -0.150181 -0.058036 0.298390 -0.267707 -0.757391 0.159480 -0.197599 -0.003356 -0.136954 -0.234278 0.006487 0.354193 0.439169 0.025058 -0.183099 -0.019595 0.087722 -0.158147 -0.390782 0.105103 -0.098320 0.014564 -0.032363 0.199726 -0.474407 0.157872 -0.214575 -0.092165 -0.379538 -0.029450 0.144913 -0.045651 -0.101365 0.065604 0.273656 0.072379 -0.101662 0.038177 -0.260589 -0.071920 0.006521 -0.532780 -0.000010 0.050394 0.392429 0.108950 0.009828 -0.198970 0.013095 -0.205618 0.266618 -0.031657 -0.017997 0.172872 0.122721 0.054853 0.139526 -0.103491 -0.384646 -0.238206 -0.255330 -0.221725 -0.289636 0.073494 -0.147419 0.062319 0.093990 0.228250 -0.415409 0.160941 -0.177141 0.078388 0.394012 -0.058827 0.004285 0.150471 -0.159289 0.119179 0.081529 0.159822 0.089803 -0.079714 0.004698 -0.215305 -0.202605 0.059297 0.211593 -0.060132 -0.053171 -0.253737 -0.169449 -0.022222 -0.117202 0.526815 -0.095152 -0.273846 0.026420 0.048324 0.066796 0.242515 0.111024 -0.094498 -0.239467 -0.197186 -0.206071 0.282613 0.190650 0.233378 -0.205385 0.481664 0.036686 -0.011779 0.280956 -0.262917 -0.166524 -0.128364 -0.320268 -0.363366 0.022125 0.019373
1811 -0.328038 0.159430 -0.515251 0.472091 -0.348440 0.049773 -0.284026 -0.324340 -0.117466 -0.088642 -0.021325 -0.340479 -0.027731 0.010945 0.306601 -0.177974 0.087311 -0.069977 0.136308 -0.056385 -0.230765 -0.171602 -0.257328 -0.125566 0.208641 -0.212249 -0.047676 -0.030715 -0.051432 0.052997 -0.018384 0.038139 0.133557 0.187449 -0.474069 -0.161200 -0.279600 -0.049092 -0.129349 0.022941 -0.090125 0.015767 0.144077 0.062941 -0.171368 -0.087089 -0.157356 0.236539 0.447489 -0.276262 0.118699 -0.119904 -0.012971 -0.046202 -0.052946 -0.220801 0.188256 0.037437 0.102251 0.189040 -0.253405 0.141217 -0.383618 -0.049121 -0.018140 0.041758 -0.170496 -0.053671 0.129448 -0.432434 -0.226340 -0.025226 0.009797 0.196317 0.099245 0.023858 -0.284663 0.113708 -0.052683 0.043798 0.245750 0.259105 -0.438451 0.343250 0.011666 0.174724 0.037954 -0.217905 -0.148962 0.147234 -0.177752 -0.256042 -0.049867 -0.185243 -0.095203 -0.118009 0.230484 0.345929 -0.155481 -0.333172 -0.096568 0.193422 -0.270217 -0.457568 -0.045059 -0.164994 -0.215459 0.215558 -0.248768 -0.150804 -0.075826 -0.126568 -0.200230 -0.016145 0.097858 0.105441 -0.098380 0.073282 -0.131963 -0.353436 0.375316 0.043645 0.080175 0.203393 -0.491763 -0.308445 -0.116943 -0.300010
1115 -0.095439 0.167930 -0.469001 0.303856 -0.102941 0.227554 0.101534 0.066809 0.009105 -0.178649 0.094319 0.218627 -0.182364 -0.139591 -0.047988 -0.236160 0.261625 0.091475 -0.007940 0.063920 -0.138907 -0.260792 -0.087880 0.155913 -0.022354 0.254206 -0.131260 0.013784 -0.096581 -0.108131 0.080565 -0.220524 -0.353772 -0.108410 0.048903 0.000264 -0.162031 -0.211949 0.131469 0.010942 0.279173 -0.246702 0.165133 0.173009 0.047674 -0.297029 -0.136589 0.187872 0.400225 0.057624 0.143094 0.108979 -0.045760 -0.023906 -0.041193 -0.270410 0.174486 -0.189342 0.031611 0.288634 -0.257803 0.197646 -0.038055 0.035382 -0.174940 0.064530 -0.521785 0.005504 -0.008167 -0.181176 -0.287418 -0.301116 -0.199000 -0.205710 -0.008463 -0.106054 -0.203889 0.001181 -0.017029 0.100862 0.194112 -0.374850 -0.212566 -0.067559 -0.028705 0.264102 -0.011538 0.213049 -0.272163 -0.160278 -0.060713 -0.030246 0.117724 -0.115381 -0.218148 0.106483 0.224336 0.351648 0.069879 0.310840 -0.014340 0.525840 0.095329 -0.536762 -0.218502 0.034249 -0.172043 0.348887 -0.091325 0.035242 -0.008330 0.048655 -0.079243 -0.005768 0.020397 -0.023593 -0.003415 0.674560 0.102091 -0.330319 0.159977 -0.119239 0.037976 0.092147 -0.361512 0.164949 0.332752 -0.195348
1824 -0.005072 0.043976 0.223068 0.158421 -0.292672 -0.199287 0.066175 -0.145828 0.205735 -0.488212 -0.261191 -0.034139 -0.388157 -0.516202 -0.402072 -0.209181 0.436790 -0.089878 0.081492 0.497911 0.198173 -0.052963 -0.085286 -0.287717 -0.008485 -0.134893 0.059923 0.225898 -0.135850 0.341030 -0.177619 -0.222631 -0.185462 -0.019684 0.128968 -0.492210 -0.272676 0.137285 -0.054320 -0.203506 0.195593 -0.331879 -0.203082 0.008912 0.152120 -0.491114 -0.086505 0.419541 -0.005264 -0.181097 -0.002138 -0.192614 0.150982 0.107611 -0.480156 0.201235 0.146423 -0.084442 -0.078867 -0.150559 0.025741 0.272081 0.113499 -0.113233 -0.244080 0.005659 -0.024431 0.090712 -0.058510 -0.086306 -0.104050 0.306986 -0.223737 -0.180950 0.162489 0.052292 -0.005578 -0.071077 -0.160800 -0.043921 -0.299110 0.091401 -0.404198 -0.144767 -0.333274 -0.117321 -0.038327 0.183729 -0.403147 -0.028200 0.251377 -0.075039 0.030395 0.223149 0.208938 0.133042 0.400001 0.062813 0.022545 0.034229 -0.047645 -0.046123 -0.266454 0.228785 -0.492899 0.128520 0.075935 0.209463 -0.342523 -0.105786 -0.221221 -0.069047 0.099499 -0.054999 0.251180 0.135333 -0.351771 0.118032 -0.315726 -0.294579 -0.099908 -0.264684 0.142774 -0.198194 0.024939 0.208220 -0.273131 -0.111669
629 0.053287 0.087996 -0.537597 0.190958 -0.309111 0.138764 0.022598 0.114792 -0.025192 -0.326136 0.042966 -0.341266 -0.004397 -0.095844 -0.229367 0.071683 -0.121947 0.276570 0.159397 -0.174030 0.109535 -0.441216 -0.249798 -0.270875 0.130095 -0.004361 0.137066 0.032634 0.078971 0.166242 0.140142 -0.133734 -0.256586 0.158994 0.174976 -0.093355 -0.029023 -0.157617 -0.025218 0.136967 -0.003234 0.110649 0.090979 0.219730 0.165513 -0.132744 0.074423 0.102876 0.038047 0.070887 -0.146061 0.229474 0.215971 -0.217234 0.069300 -0.146439 0.333894 -0.262477 0.141229 -0.095475 0.065161 0.353354 0.094221 0.110237 -0.145486 0.173582 -0.576968 -0.222952 -0.036174 -0.235985 -0.144539 -0.051272 -0.366185 -0.139730 -0.315260 -0.154219 -0.201798 -0.241539 -0.029654 -0.066806 0.152558 -0.123609 -0.186823 0.238031 -0.101334 0.049045 0.039625 0.023784 0.079216 -0.211401 0.157702 -0.054745 -0.424927 -0.272991 -0.030004 -0.317356 0.050829 0.084608 0.268846 -0.297448 -0.034047 0.006430 -0.016463 -0.295677 -0.155092 -0.080023 0.119155 0.072185 -0.260812 -0.472718 0.062044 -0.346554 0.124396 0.260914 -0.119885 -0.133667 -0.261621 0.566979 0.134323 -0.434491 -0.222105 0.129819 -0.058946 0.193374 -0.321052 0.208354 -0.185141 -0.385426
1330 -0.028887 0.352123 -0.531548 0.283462 -0.177670 0.121496 -0.098951 -0.136871 0.078297 0.016495 -0.089325 -0.067911 -0.254299 0.007464 -0.031319 0.034702 0.332132 0.006491 -0.181312 0.110582 0.065320 -0.353129 -0.106491 0.294608 0.098746 0.072845 0.060650 0.383327 0.033645 -0.111941 0.125893 -0.171122 -0.009754 -0.148413 0.219667 -0.061901 0.000327 0.138824 0.398329 0.074771 -0.113867 -0.103626 0.208155 0.175252 -0.032837 0.040553 -0.194853 -0.033804 0.255368 -0.287985 0.084357 0.409366 0.105068 0.012458 0.012975 -0.264106 0.204506 -0.079774 0.339667 0.029954 -0.090385 0.218522 -0.058474 0.250108 0.070791 0.009186 -0.186360 -0.140991 -0.161631 -0.318768 -0.191689 -0.233198 -0.019830 0.269616 -0.010517 0.196189 0.000878 0.103306 0.153590 -0.247625 -0.022570 0.171959 -0.240959 0.227336 -0.208805 0.074277 -0.315509 0.070091 0.152975 0.247983 -0.005989 -0.038992 0.061174 -0.226613 -0.231654 -0.146944 -0.179494 0.430058 -0.064053 -0.280972 -0.148641 0.344612 0.143673 -0.540401 -0.019965 0.122944 0.035284 0.165896 -0.140164 -0.291563 -0.265642 -0.137458 -0.194442 -0.130884 0.124263 0.011789 0.048313 0.519083 -0.398102 -0.364621 -0.070099 0.075788 0.117181 0.186620 -0.130124 0.047487 0.168213 -0.390905
1224 -0.215439 0.317015 -0.537055 0.104602 -0.104325 0.116606 -0.017705 0.086756 0.259340 -0.066188 -0.059862 -0.306998 -0.254849 0.143182 0.155182 0.209879 0.296938 -0.031028 -0.098945 -0.037502 -0.010427 -0.389462 -0.130498 0.562883 0.321096 0.034808 0.027815 0.217147 -0.054625 0.070372 0.062482 0.119753 -0.048922 -0.059563 0.038233 -0.100214 -0.044684 0.115778 0.565049 -0.088838 0.391304 -0.172030 -0.016281 0.160820 -0.092729 0.154530 -0.062200 -0.178355 0.332909 -0.248164 -0.188735 0.394533 -0.037029 -0.049605 -0.134754 -0.192817 -0.018171 -0.181557 0.066336 0.040072 -0.283128 0.054058 0.022862 0.018763 -0.069383 -0.123647 -0.060529 -0.159227 0.045619 -0.311297 -0.333507 -0.123372 -0.357171 0.289690 -0.284150 -0.013890 0.327068 0.044167 0.085950 -0.220002 0.096480 -0.052546 -0.378418 0.137558 -0.144580 -0.098950 0.126886 0.429371 -0.081519 0.069127 0.185871 0.212344 -0.035549 -0.028231 -0.232697 0.054025 0.193944 0.189830 -0.087229 -0.178090 -0.108680 0.283017 0.251357 -0.505962 -0.264758 -0.159392 0.162137 -0.083935 -0.018395 -0.280169 -0.061853 -0.229564 -0.102210 -0.025195 0.091908 -0.077766 -0.029325 0.435950 -0.035283 -0.335965 0.146408 0.136298 0.400591 0.078321 -0.103742 0.047632 -0.181366 -0.280677
79 0.131572 0.053325 -0.212304 0.135942 -0.472180 0.063572 -0.486791 -0.033086 0.008766 0.110682 0.385462 0.257745 -0.330508 0.322648 -0.207677 -0.172486 0.059213 0.339177 0.229993 0.138459 0.288738 -0.370410 -0.259013 0.113674 -0.113724 -0.086213 0.197240 0.419231 0.159361 0.065414 -0.004596 0.302319 0.089121 0.059690 -0.100030 -0.159471 -0.246027 -0.184759 0.150390 0.255348 0.008155 -0.351009 0.129039 0.170182 0.087656 0.143142 0.067707 0.132946 0.539033 -0.267578 -0.026926 0.070946 -0.140327 -0.183189 -0.064346 -0.096161 0.310024 -0.214081 -0.014891 0.332665 -0.348738 0.119604 -0.086897 0.461427 0.080805 0.252788 -0.405408 -0.278406 0.105289 0.061167 -0.013837 -0.032698 -0.188476 0.035855 0.289094 -0.117187 -0.357008 0.070710 0.002446 -0.096955 -0.323993 0.015028 -0.230820 0.378442 -0.187746 -0.167245 -0.102739 0.216264 -0.053520 -0.158588 0.146966 -0.036124 -0.018579 0.133635 -0.140417 -0.424435 0.365239 0.021932 0.064830 -0.049521 -0.142089 0.188674 -0.318433 -0.124885 0.113565 0.026697 -0.306391 0.003895 -0.329770 -0.299999 0.029424 0.089660 0.077811 0.001443 -0.301797 0.142098 0.098681 0.706728 -0.181540 -0.370718 0.190557 -0.081886 0.339940 0.057270 -0.309668 0.447703 0.239907 -0.392130
1938 0.025493 0.205461 -0.005795 0.048617 0.013948 0.130452 -0.043993 0.261949 -0.221758 -0.162472 -0.212863 -0.281239 -0.153218 -0.111417 -0.229528 0.052386 0.016528 0.063978 -0.173409 0.224722 -0.209266 -0.256811 -0.469407 0.356584 0.037644 0.124978 -0.074077 0.215272 0.164822 0.134958 -0.245062 -0.065679 -0.037171 -0.025475 0.248110 -0.209556 0.248589 -0.172910 -0.122597 -0.068324 0.275729 0.268399 0.009308 -0.071803 0.232251 0.141623 0.246484 0.049645 -0.082816 -0.408615 -0.038700 0.178489 0.025614 0.262178 0.028707 -0.201466 0.050687 -0.194286 0.138931 -0.172076 -0.420823 0.110621 -0.151371 -0.361639 -0.376868 -0.384547 -0.215464 -0.089250 -0.090171 -0.119752 -0.255466 0.134000 0.047515 -0.111385 0.136066 0.134936 -0.190285 -0.331568 -0.340888 0.296774 -0.189512 0.071451 -0.181696 -0.467675 0.195645 0.182279 0.274300 0.570141 -0.156646 0.078313 0.036085 0.022909 -0.174833 0.005910 0.069207 -0.238196 0.414419 0.037420 -0.096584 -0.234753 -0.161730 0.265166 -0.344689 -0.229703 -0.440819 -0.126087 -0.033828 0.260094 -0.160459 0.052876 -0.033699 0.242587 0.281601 0.392126 0.177414 0.338396 -0.205767 -0.132795 0.148375 -0.529221 -0.081262 -0.270552 -0.328274 -0.338722 -0.493751 0.304783 -0.011009 -0.210679
1884 -0.074331 0.060148 0.204271 0.460012 -0.188623 0.152767 -0.092237 -0.220402 -0.280632 0.288689 0.002110 -0.396660 -0.679287 0.145363 -0.046529 0.056696 0.424648 0.214207 -0.054547 0.000748 -0.250465 0.312898 -0.113612 -0.118124 0.223538 -0.253301 0.066257 0.091812 0.257148 0.234631 -0.278732 0.068918 -0.555734 0.041571 -0.184515 0.080086 -0.311287 0.309604 -0.235216 -0.073190 -0.008210 -0.073202 -0.017031 0.159921 -0.256930 -0.047384 -0.331806 -0.116690 0.105956 -0.453215 0.018910 0.222497 0.023670 0.060601 0.066479 -0.554606 0.237070 0.031321 0.077527 -0.290951 -0.248045 0.446829 0.265473 0.075096 0.117668 0.048455 -0.444098 -0.123412 -0.122521 -0.510521 -0.280503 0.208180 -0.015668 0.056253 0.022543 -0.238203 -0.364560 0.223391 0.062651 0.081862 0.262053 0.087108 -0.024692 0.363528 -0.070868 -0.124100 0.163271 -0.161211 0.032130 -0.163442 -0.002171 -0.645720 0.143853 -0.016512 0.185093 0.022268 -0.076616 0.020427 -0.125415 -0.184965 -0.155429 0.363845 0.104440 -0.278788 0.017263 -0.140832 0.058433 0.300066 -0.016019 -0.174077 -0.245575 -0.022299 0.112952 0.239182 -0.029783 0.181110 -0.177463 0.480481 -0.120982 -0.041188 0.476442 -0.041645 0.043704 0.203777 -0.150675 0.338712 -0.067885 -0.425419
2224 -0.100862 0.078327 0.123617 -0.180316 -0.625123 0.013366 0.120676 -0.190990 0.145522 -0.350653 -0.052659 -0.324500 -0.332240 -0.518586 -0.358410 0.015980 0.436044 0.400308 0.151997 -0.289978 0.153418 -0.296608 -0.232294 -0.377871 -0.116610 0.165148 0.104013 0.084224 -0.078503 0.129061 -0.084113 -0.125579 -0.129114 -0.424195 0.000518 -0.204617 -0.090314 0.053676 -0.047687 -0.181581 -0.075321 0.157594 -0.072186 -0.062037 -0.155955 -0.055957 0.252120 0.400033 -0.011008 0.092059 -0.020994 0.344332 0.038180 0.122875 -0.144355 0.173722 0.205495 -0.468738 -0.114589 -0.135185 -0.231167 0.142791 0.209081 -0.321745 -0.367153 0.062784 0.024297 0.373510 -0.228543 -0.360269 -0.104014 -0.047709 -0.178658 0.202773 -0.044139 0.200868 0.125734 -0.333622 -0.268652 -0.168037 -0.295968 0.309702 0.034169 0.135930 0.071452 -0.111391 0.019267 0.667007 -0.357632 -0.014686 0.397417 0.243588 0.377133 -0.027935 -0.136006 0.186855 0.189970 -0.168148 -0.031563 0.254634 0.041846 0.372676 -0.043199 0.216348 -0.194010 -0.049844 -0.106135 0.255601 -0.007983 0.074797 -0.111092 0.120758 0.034846 -0.066614 0.195277 0.505119 -0.427270 0.407873 -0.190497 -0.183872 0.185394 -0.379615 0.252153 -0.050485 0.116757 0.278567 -0.212998 0.121180
1354 -0.171106 0.261352 -0.207429 0.169216 -0.089664 -0.033939 0.031866 0.104004 0.073927 0.078867 0.300180 -0.232201 -0.001099 0.090421 -0.119900 0.093826 0.119332 -0.125564 0.200747 0.028499 -0.172598 -0.271029 -0.302064 -0.104819 0.297851 0.086199 -0.042379 0.090046 0.118618 0.071382 0.055775 0.085920 0.075367 0.094371 -0.253042 0.153674 -0.029796 -0.257814 -0.113675 -0.122553 0.341044 -0.215183 0.066221 0.388882 0.036833 -0.072651 -0.220381 0.333655 0.182479 -0.189221 -0.165764 0.179820 0.105332 0.345061 0.167496 0.115307 -0.002913 -0.228059 -0.289277 0.184446 -0.455037 -0.070340 0.218706 0.142577 0.093893 -0.425628 0.089800 -0.168450 0.030440 -0.397992 -0.066441 -0.300970 -0.436139 0.151039 -0.006199 0.288881 0.036463 0.215358 -0.150179 -0.056223 0.061624 0.176698 -0.038990 -0.010582 -0.376625 0.096696 -0.030524 0.299483 -0.093883 -0.000644 0.080297 -0.134639 0.321983 0.058259 -0.014383 0.024856 0.453090 0.188904 -0.037103 0.226330 0.104051 0.580020 -0.112343 -0.110091 -0.251804 -0.049472 0.117470 -0.179851 -0.525527 -0.235109 0.094987 -0.030901 0.033653 -0.111147 0.075859 0.336437 0.017025 0.564007 -0.134123 -0.364659 0.018259 0.105661 0.339566 -0.067768 -0.073578 -0.256596 0.065352 -0.067697
1341 0.077204 0.161639 -0.367783 0.269380 -0.261414 0.440642 0.073318 0.013548 -0.172350 0.018565 0.178262 0.003170 -0.168412 -0.096660 -0.069091 -0.135970 0.095758 -0.274703 -0.124892 0.083871 -0.073597 -0.267486 -0.219295 0.033054 0.078731 0.039898 -0.169860 0.288771 -0.018332 -0.059265 0.217808 -0.130377 -0.064551 -0.130140 -0.172138 -0.157465 -0.158473 -0.259960 0.052131 0.032795 0.327324 -0.142949 0.051857 0.242487 -0.129973 0.004437 -0.100313 0.248647 0.203339 -0.392258 0.236603 0.215988 -0.083688 0.094317 -0.073665 -0.298970 -0.040373 0.060895 -0.048564 0.053421 -0.254298 0.370735 -0.117409 0.002643 0.024884 -0.035515 -0.262799 -0.018686 -0.128369 -0.039039 -0.326432 -0.337985 -0.143432 0.073085 0.149733 -0.049044 -0.207260 -0.019504 0.165888 -0.044230 -0.131286 -0.129857 -0.378837 -0.242327 -0.116596 0.065200 -0.151018 0.388100 -0.128067 -0.317320 0.138827 0.036798 0.327721 -0.301362 -0.154194 -0.011711 0.142801 0.118080 -0.129476 0.074471 -0.181000 0.414623 -0.105437 -0.553798 0.064126 -0.261875 0.094154 0.180176 0.190724 -0.227830 0.288424 -0.165576 -0.148900 -0.355385 -0.286282 0.100801 0.101514 0.611662 -0.041231 -0.301157 0.103124 -0.117733 0.203536 0.061941 -0.126826 0.095880 0.080676 -0.174774
80 -0.255491 0.729733 0.255177 -0.030685 -0.168879 -0.066962 -0.110277 -0.177436 0.025272 -0.051994 -0.348893 0.123139 -0.220855 -0.240185 -0.413801 0.056541 0.116052 -0.106782 0.222847 0.152730 0.062933 -0.152772 0.062815 -0.258213 0.052051 0.037679 0.322455 0.158554 -0.195958 0.140448 -0.154978 0.068346 -0.227405 -0.202614 -0.054101 -0.445442 -0.303315 0.053261 0.458777 -0.068901 0.002492 -0.109336 -0.184686 0.224838 0.011585 0.114847 0.242119 0.276024 -0.064620 -0.306318 0.217186 0.034932 -0.048587 0.252727 -0.138961 0.376850 0.244418 -0.137442 -0.148004 0.103223 0.089905 0.325434 0.070993 -0.281372 -0.188668 -0.139433 -0.323579 -0.010526 0.065226 0.030152 -0.358427 0.145393 -0.146195 0.317335 -0.131378 0.262336 -0.118206 0.048369 0.453160 0.066269 0.003068 0.104750 -0.238957 -0.482747 -0.398719 0.198558 -0.046385 -0.400148 -0.173971 0.501211 0.125723 0.001451 -0.023278 0.268038 0.032085 -0.083278 0.445354 0.039304 -0.227713 -0.099194 0.327042 0.130139 -0.207296 0.105573 -0.131737 0.071632 -0.461481 0.064059 -0.237665 -0.173637 -0.086089 0.091266 -0.032477 -0.096718 0.193047 0.508573 -0.189272 0.485127 0.035894 -0.367920 0.139198 -0.160353 -0.119336 -0.156565 -0.150353 0.258375 0.028960 0.021072
1317 -0.048000 -0.125364 -0.713658 0.333819 0.160121 0.020658 0.104685 -0.126906 0.081884 0.095725 0.256203 -0.105891 -0.325099 0.186942 -0.132369 -0.029113 0.308475 -0.180278 -0.007652 0.032629 -0.064302 -0.090329 -0.102494 -0.064926 -0.055845 -0.027839 0.017416 0.216824 -0.039499 -0.039919 0.159132 -0.135748 0.081712 -0.091861 -0.298445 -0.099028 -0.293756 -0.082362 0.359461 0.187993 -0.222599 -0.308167 -0.102868 0.172517 -0.137605 -0.188748 -0.144771 0.146220 0.284746 -0.447696 0.066925 0.131206 0.097127 0.250864 0.336985 -0.281311 -0.195248 -0.265854 0.014702 -0.017516 0.006279 0.269218 -0.265078 0.148179 0.074460 0.010148 -0.400322 -0.186464 -0.017362 -0.340565 -0.246325 0.024092 0.050054 0.089284 -0.056865 0.042241 -0.064316 -0.003934 -0.299660 0.035265 -0.105436 -0.133791 -0.362416 0.202976 -0.047195 0.010522 0.211602 0.094431 0.071331 -0.353299 0.087949 -0.113993 0.254876 -0.273186 -0.269057 0.039164 0.306030 0.203554 -0.001218 0.014958 -0.271051 0.297198 -0.161027 -0.226018 0.185047 0.017082 -0.109462 0.305980 -0.119334 -0.265252 0.055420 -0.317284 -0.127358 -0.045259 -0.073155 -0.283907 -0.274231 0.345387 -0.046504 -0.360856 0.317511 0.029160 0.016144 -0.130646 -0.367775 -0.127181 0.223224 -0.465134
378 -0.099869 -0.072366 0.120257 0.624879 -0.139530 0.177850 -0.100655 -0.325155 -0.189955 0.076408 -0.014679 -0.046103 -0.776870 0.161635 0.042378 0.093645 0.473874 0.116194 -0.095733 0.020643 0.009677 0.184524 -0.098908 -0.246825 0.282180 -0.146245 -0.104524 0.015910 0.137617 -0.020592 -0.151087 0.064860 -0.497010 -0.109053 -0.276352 -0.276352 -0.242299 0.292907 0.009621 -0.435575 -0.051098 0.148940 0.007259 0.111464 -0.122744 -0.080661 -0.322492 -0.111400 0.287776 -0.749153 -0.050895 0.355782 0.121505 0.037265 0.027269 -0.226374 0.290425 0.275110 0.173711 -0.149905 -0.020819 0.373710 0.210129 -0.024503 0.118321 0.337564 -0.221617 -0.136298 -0.021981 -0.583971 -0.192975 0.392242 -0.004406 0.135719 0.063435 0.012001 -0.480399 0.179529 -0.000867 -0.030103 0.398735 -0.067565 -0.113364 0.419374 -0.138336 -0.045652 0.343348 0.060639 0.250887 -0.185682 -0.062445 -0.411905 0.293550 -0.076489 0.324496 -0.116482 0.076364 -0.005087 -0.002615 -0.360194 -0.325046 0.508818 0.343613 -0.223423 -0.060469 0.016175 0.190339 0.223626 -0.087939 0.174543 -0.130329 -0.123061 -0.064966 0.327439 -0.099156 0.374731 -0.178183 0.540800 -0.044294 0.070068 0.388423 0.001863 -0.094064 0.168587 -0.090894 0.081629 -0.406522 -0.377293
416 0.110313 0.232410 -0.160534 0.189594 -0.242947 0.153089 -0.324084 0.216462 -0.136192 0.079047 0.064757 0.261629 -0.133869 -0.212042 0.042646 0.047776 -0.060226 -0.019652 0.033475 0.025925 -0.170214 0.034655 -0.195318 -0.071498 0.077716 -0.101500 0.392786 0.098686 0.185366 0.261673 0.071064 -0.128453 0.062107 0.110991 0.233421 0.047610 -0.077299 -0.212616 0.002251 -0.292618 -0.075481 -0.297254 0.216435 0.517276 -0.095370 -0.169592 0.088074 0.212013 0.263220 0.221746 0.047773 0.279248 -0.154456 0.317885 0.022892 -0.324479 0.306416 -0.351415 -0.298028 0.136998 -0.149340 0.366129 -0.142639 0.413600 0.226617 -0.295605 -0.201904 -0.125228 -0.082602 -0.035688 -0.387258 -0.000168 -0.312913 -0.096020 0.294029 -0.081510 0.117362 -0.217651 0.040847 -0.253046 0.114806 -0.364999 -0.424109 0.020235 -0.420525 0.187972 -0.048413 0.236339 0.042714 -0.004024 0.223809 0.120673 0.326144 -0.237215 -0.096998 -0.235759 0.106084 0.212875 0.168925 0.057552 0.134057 0.425574 -0.259187 -0.262816 -0.246414 0.067660 0.067828 -0.133448 -0.118175 -0.187431 0.016825 0.098405 -0.030753 -0.147387 0.330370 0.298284 -0.337953 0.428564 -0.292366 -0.078317 0.127550 -0.139969 -0.110118 0.296174 -0.259149 -0.142254 0.270430 -0.313099
1077 -0.023525 0.103988 -0.145030 -0.286911 -0.230644 0.227657 -0.219473 -0.223780 -0.110185 0.023855 -0.559630 -0.167582 -0.064279 -0.172056 -0.549309 0.082441 -0.009230 -0.013774 -0.195475 -0.129324 0.030498 0.001607 -0.177322 -0.497066 -0.043421 -0.314144 0.083830 0.117877 0.037128 -0.268576 -0.091604 0.494192 -0.116928 0.065286 0.200884 -0.282233 -0.178417 -0.064861 0.204501 -0.135706 -0.090452 -0.186511 0.029319 -0.037197 -0.115632 -0.040971 0.007377 0.481108 0.201741 0.014847 -0.000711 -0.028008 0.471309 0.090298 -0.013437 0.022534 0.232075 -0.172948 0.266424 -0.580982 -0.217805 -0.005815 0.154815 -0.278191 -0.069612 -0.125151 -0.132051 0.030598 0.358043 -0.546486 -0.277275 0.198064 -0.238115 0.353832 -0.139988 0.283796 0.069071 -0.176337 0.062888 0.054251 0.140356 0.299049 -0.251068 -0.007122 -0.201685 -0.325848 0.100276 -0.148869 -0.094651 0.195361 0.050462 0.146439 0.156096 0.142346 -0.170937 0.067826 0.373316 0.032345 -0.035772 -0.066529 -0.145061 0.068855 -0.147257 0.212795 -0.035238 -0.263376 0.133948 0.243299 -0.267098 -0.114927 0.088773 0.215408 0.044040 0.248409 0.384606 0.316245 -0.081502 0.199176 -0.088548 -0.370283 0.253199 -0.208708 0.138531 0.050634 0.190924 0.402400 -0.182744 -0.065503
2208 -0.152816 0.285951 -0.170211 -0.019861 -0.199868 0.016441 0.143082 0.232874 -0.182239 -0.029090 -0.132173 0.319628 -0.078177 0.458712 -0.099183 -0.011216 -0.124614 -0.054716 0.154749 -0.021076 -0.113049 -0.292574 -0.061396 -0.248225 0.341692 0.278975 -0.095508 -0.033325 -0.180258 -0.124201 0.008480 -0.221397 -0.084040 -0.024343 0.078107 -0.020994 -0.054706 -0.012409 0.255955 -0.089032 0.261668 -0.186776 0.069687 0.581251 -0.161067 0.189769 -0.042702 0.250423 0.537908 -0.424648 0.241157 0.040659 0.287626 0.353451 0.226431 0.017889 0.420856 -0.140431 -0.214613 0.237076 -0.345047 0.281234 -0.103569 0.220317 0.107324 0.264323 0.032858 0.129650 0.051372 -0.193053 -0.289143 -0.297717 -0.063498 0.151844 0.148774 0.077428 0.031516 -0.174152 -0.064634 -0.082799 0.038600 -0.134076 -0.277397 -0.063792 -0.305053 -0.201356 0.102801 0.328303 -0.015603 -0.067782 0.299866 -0.194075 0.000867 -0.176411 -0.191005 -0.154053 0.183360 0.139199 -0.142935 -0.042150 0.053049 0.393373 -0.146994 -0.229614 -0.042792 -0.283699 -0.266613 0.066567 -0.089107 -0.388007 -0.148971 -0.052229 -0.218857 -0.105850 0.042998 0.414600 -0.258764 0.502026 -0.303413 0.029512 0.094774 0.035591 -0.102589 -0.136631 -0.131695 0.083745 0.148058 -0.003149
915 -0.158027 0.003944 0.014777 0.475903 -0.109719 0.104049 -0.148062 -0.130847 -0.048700 0.026876 0.182476 -0.104832 -0.714659 -0.074070 -0.159012 0.243427 0.454179 0.064938 -0.051419 0.102044 -0.154228 0.113158 -0.103534 -0.102300 0.228364 -0.302168 -0.065014 0.050974 0.137321 0.003592 -0.055878 0.126998 -0.535101 -0.086994 -0.095161 -0.050888 -0.131697 0.264228 -0.261011 -0.266450 -0.166516 0.119497 0.096837 0.222665 -0.338710 -0.015996 -0.409851 -0.132698 0.107458 -0.608938 -0.029128 0.565866 0.097227 -0.047123 0.177311 -0.348534 0.126332 0.195420 0.210964 -0.037863 0.077407 0.483336 -0.030485 -0.041909 0.183780 0.104529 -0.325088 -0.187970 0.006896 -0.491987 -0.302835 0.354926 -0.039288 0.015995 -0.047133 0.048408 -0.590513 0.075301 0.082508 -0.003563 0.499299 -0.040437 0.115405 0.227338 -0.371083 0.019471 0.348303 0.101740 0.191429 -0.298696 -0.248905 -0.576524 0.235879 -0.122120 0.461216 -0.083848 0.006250 0.138388 -0.057730 -0.247204 -0.263686 0.431451 0.297129 -0.372955 -0.073992 -0.015375 0.309719 -0.023938 -0.179587 0.048312 -0.124979 -0.054270 0.079526 0.259640 0.031168 0.366921 -0.219123 0.487889 -0.045115 -0.120853 0.210004 -0.216276 -0.121543 0.205126 -0.138156 0.217883 -0.313708 -0.165319
761 -0.065871 0.154665 -0.302248 0.138026 -0.273831 -0.009008 -0.226479 0.180278 -0.254972 -0.098609 0.083525 -0.302552 -0.136696 0.304469 0.091984 -0.052581 0.006938 -0.336681 -0.184352 -0.116513 -0.166034 -0.296353 -0.225925 -0.319181 0.048187 0.012332 -0.232290 0.043086 0.120213 -0.055877 0.229178 0.110769 -0.130591 -0.169894 -0.074265 -0.006228 -0.002480 -0.057697 0.175923 -0.129009 0.214799 -0.256826 0.019759 0.220630 -0.251351 0.054160 0.084289 0.148462 0.278123 -0.217292 0.067351 0.226917 -0.208358 -0.007828 0.104519 0.081749 0.032405 -0.352392 -0.162091 0.044859 -0.227853 0.277202 0.154384 0.161516 0.077466 -0.250043 -0.491378 -0.045540 -0.154360 -0.052205 -0.373166 -0.267261 -0.055360 -0.056103 0.129097 0.184068 -0.194519 -0.176668 0.085447 0.089173 -0.081316 -0.180678 -0.457337 0.163524 -0.109584 -0.113102 -0.305916 0.236853 0.172567 -0.179181 0.146763 0.025402 0.285874 0.142584 -0.051040 -0.010019 0.271369 0.075803 -0.179894 0.034420 -0.282587 0.550901 -0.188758 -0.171940 -0.039229 -0.152277 0.087795 -0.025212 -0.124488 -0.418165 -0.053944 -0.103879 -0.226143 -0.288074 0.016212 0.070829 -0.121905 0.668328 -0.209321 -0.095366 0.189050 -0.306384 0.189119 0.085318 -0.055068 0.202640 0.228256 -0.189645
182 -0.146061 0.096659 -0.625446 0.233846 -0.105088 0.213533 -0.416897 -0.200871 0.176176 0.122170 0.084215 -0.413138 0.113151 -0.039864 0.111692 0.165250 0.058395 -0.116805 0.306219 0.175143 -0.159382 -0.113999 0.113038 0.137046 0.194497 -0.246544 0.032930 -0.112330 0.028056 0.131639 0.110194 0.171663 0.196200 0.092613 -0.436269 0.039013 0.125526 0.121222 -0.194886 -0.001402 0.050331 -0.320832 0.219685 0.104954 -0.174951 -0.372732 -0.311942 0.239364 0.454356 -0.279616 0.192073 0.045536 -0.040548 0.351141 -0.066810 -0.378611 0.402568 0.197713 0.062943 0.024019 -0.252136 0.352513 -0.003286 0.131161 -0.175252 -0.257353 -0.031437 0.011452 0.090766 -0.306484 -0.021806 -0.192175 -0.409789 0.171165 0.048069 -0.198964 -0.023307 -0.122596 -0.051532 0.029212 -0.206847 0.003873 -0.132758 0.035593 -0.127849 0.081063 -0.067397 0.113932 0.076492 -0.106808 -0.352374 0.043196 0.331242 -0.071675 0.096279 -0.127806 0.565278 0.347133 -0.119125 -0.165730 0.138190 0.012141 -0.176529 -0.338099 -0.286151 -0.085735 -0.154366 0.425206 -0.109089 -0.203015 -0.125685 -0.254606 -0.044921 -0.069791 -0.060587 0.030617 -0.194027 0.258625 0.241229 -0.387936 0.049253 0.094788 0.022622 0.097966 -0.270663 -0.157833 0.126664 -0.262413
1390 0.080254 0.241062 -0.193618 0.204429 -0.174784 -0.007881 -0.157058 0.115009 -0.054342 -0.049893 0.279299 -0.079275 -0.260444 0.129410 -0.183335 -0.005585 -0.029533 -0.121398 -0.092019 -0.073034 -0.109228 -0.198068 -0.280702 -0.040884 0.202795 0.132984 0.085342 0.208964 -0.165104 0.101395 -0.090396 0.008067 -0.008409 -0.263765 -0.095023 -0.061718 -0.102657 -0.138365 0.077105 0.035488 0.328816 -0.464251 0.074297 0.209942 -0.415266 0.070604 0.018626 0.144773 0.190606 -0.090831 0.226757 0.141568 0.399299 0.053063 0.008073 -0.253999 0.362132 -0.267221 0.091872 0.136012 -0.254329 0.300224 0.013286 0.466390 0.031204 -0.008341 -0.623058 -0.090033 -0.171739 0.031167 -0.297272 -0.041144 -0.005436 -0.161129 0.393778 0.112977 -0.245382 0.028076 0.074097 0.033571 -0.300936 -0.140248 -0.176121 0.166960 0.022952 -0.015304 -0.200032 0.243018 0.158016 -0.259721 0.083967 -0.092306 -0.081113 -0.218173 -0.337268 0.087934 0.368708 0.430470 -0.003059 -0.031391 -0.171735 0.642948 0.001966 -0.230312 0.100601 -0.101232 0.118845 0.064950 -0.025732 -0.451631 0.129330 0.110081 -0.239901 0.097020 -0.304214 -0.221881 -0.040122 0.423144 0.118417 -0.198966 0.314339 0.038399 -0.063373 -0.126519 -0.387471 0.085176 -0.110072 -0.165626
1861 -0.019656 -0.001688 -0.440898 0.394617 -0.423595 0.122319 0.063384 -0.209129 -0.063321 -0.090806 -0.120407 0.006571 -0.368959 0.338520 -0.054836 0.095674 0.193106 -0.072438 -0.024060 0.216128 0.110581 -0.529207 -0.005724 0.010136 -0.166544 -0.008898 0.088757 0.485391 -0.303384 0.027337 -0.086309 0.194613 0.129798 0.042404 -0.002501 0.105712 -0.036162 -0.241782 0.314368 0.119783 0.031304 -0.160226 0.059839 0.113450 -0.184819 0.200264 -0.009291 0.072314 0.218930 -0.187754 0.099300 0.041142 0.192193 0.149678 -0.072657 -0.189158 0.230002 -0.250014 -0.135185 0.317268 -0.317076 0.171874 -0.008752 0.304802 0.260983 0.167758 -0.214414 -0.019824 -0.199117 0.122935 -0.374802 -0.051536 -0.296263 0.289273 0.045421 -0.163665 -0.015630 -0.098599 0.215262 -0.145840 0.202262 0.197147 -0.196500 0.229221 -0.223983 0.100891 -0.111686 -0.111662 0.098584 -0.344464 0.181729 -0.013369 0.054428 -0.048941 -0.302376 -0.220062 0.370899 0.138003 -0.002658 0.100911 -0.354378 -0.047844 -0.281598 -0.046324 0.157172 0.057925 -0.148387 -0.059721 -0.299584 -0.447131 -0.181032 -0.263615 -0.160314 0.108828 -0.216373 0.161319 -0.096895 0.505629 -0.318485 -0.501319 0.300159 0.107459 -0.034281 0.033575 -0.049656 0.154965 0.212194 -0.328920
57 -0.119108 0.014867 -0.697878 0.314770 -0.183403 -0.019784 -0.006650 -0.316648 -0.045288 0.357236 0.325896 0.237712 -0.524337 0.105571 -0.155882 -0.306409 0.134195 -0.049802 0.319167 0.242969 0.271548 -0.125507 -0.252093 -0.116822 0.284448 -0.138160 0.144984 -0.027349 0.041656 0.413106 0.044977 0.153657 0.213070 0.014620 -0.388624 -0.142120 -0.391709 0.205471 0.119189 -0.133410 -0.122849 0.088055 0.009097 0.413470 -0.183125 -0.187248 -0.064001 0.182091 0.465730 -0.454028 0.147957 0.086812 0.156546 -0.121962 0.254715 -0.144979 -0.146960 -0.234922 0.250271 -0.325878 -0.324505 0.193326 -0.196076 0.073049 -0.139591 -0.261650 -0.114480 0.192935 -0.131177 -0.303164 -0.380259 -0.184792 0.059945 0.169084 0.297088 0.456110 -0.347001 -0.199508 -0.189532 0.011208 -0.116034 -0.096875 -0.308223 0.371785 -0.086984 0.022946 0.011142 -0.180533 0.055657 -0.065490 -0.297108 -0.187495 0.248090 -0.326219 -0.212057 -0.103711 0.329969 0.181159 0.222916 -0.194040 -0.203319 0.384134 0.078351 -0.124341 0.155114 -0.060864 -0.404291 0.521923 -0.511313 -0.219381 -0.698254 -0.387880 -0.000251 -0.136429 -0.110473 -0.144807 0.030686 0.297563 0.064312 -0.330495 0.008517 -0.075947 0.157705 0.014167 -0.351505 0.169381 0.343545 -0.101244
651 -0.088820 0.082381 -0.568651 0.169768 0.079557 0.214002 -0.268988 -0.042676 -0.126236 0.050442 0.184891 -0.269811 -0.381451 0.037182 -0.418849 0.072887 0.193971 0.044587 -0.027992 0.026391 -0.094675 -0.252517 -0.238851 -0.010618 0.449973 -0.129441 0.223967 0.001361 0.078463 0.031014 0.256974 -0.106447 0.301726 -0.140338 -0.112455 0.219425 -0.074134 0.176298 0.127181 0.048312 0.025510 -0.274091 0.161641 0.116765 -0.230284 -0.062469 -0.024123 0.100352 0.304207 -0.134243 0.226599 0.042850 0.176335 0.056238 0.049117 -0.330016 0.071004 -0.118227 -0.182377 -0.077845 0.010058 0.081794 -0.003612 0.080804 -0.151649 0.206390 -0.394611 -0.317733 0.084101 -0.353314 -0.100522 -0.363104 -0.065144 -0.067333 0.093259 -0.049316 -0.143068 -0.072675 -0.107551 0.050686 -0.012817 -0.130685 -0.480160 -0.023031 -0.160373 -0.107689 0.150975 0.179897 -0.218659 0.006476 -0.029593 -0.001838 0.098515 0.035724 -0.231447 0.149031 0.193048 0.101772 0.144740 0.141840 -0.179117 0.225115 -0.265290 -0.291504 0.002178 -0.058966 0.102732 0.301441 -0.338881 -0.301464 -0.393971 0.029609 -0.127489 0.155890 -0.254003 -0.023222 -0.030566 0.460883 -0.178239 -0.299042 0.151895 -0.045063 0.078869 0.231565 -0.400533 0.040248 0.275385 -0.318438
1465 -0.121094 0.086730 -0.358281 0.474463 -0.286864 0.015005 -0.311561 -0.048923 -0.273442 0.225171 0.058260 0.138593 -0.452051 0.157639 -0.226713 -0.298043 -0.124786 0.168447 -0.075936 0.230252 0.123970 -0.354360 -0.241906 -0.066108 0.362485 -0.040253 -0.064738 0.127210 0.140855 0.321818 0.197961 0.058653 0.010636 0.199120 -0.369638 -0.093595 -0.506332 0.104002 0.313757 -0.356445 -0.040826 -0.262118 -0.068579 0.017836 -0.163030 -0.123858 -0.042515 0.163405 0.248926 -0.283230 0.240517 0.391477 0.075220 -0.216471 0.113617 -0.222367 0.194213 0.231393 0.053667 -0.261145 -0.072253 0.107549 -0.266500 0.151863 -0.170959 -0.119578 -0.072573 0.297923 -0.237496 -0.035776 -0.044710 -0.009148 -0.110271 0.174801 0.163667 0.218083 -0.272327 -0.393043 -0.086369 0.184902 -0.108235 0.216541 -0.313703 0.330003 0.012705 0.301559 0.173229 0.074907 -0.040358 0.003857 -0.124096 0.086302 0.544713 -0.193865 -0.355504 -0.175803 -0.017647 -0.120127 0.171546 -0.059875 -0.262844 0.644454 0.099405 -0.262784 0.237056 -0.087053 -0.215463 0.234072 -0.456085 -0.211946 -0.537765 -0.100869 0.241067 -0.255305 -0.171163 0.049567 0.290053 0.335680 0.120255 -0.278296 0.079651 -0.100639 -0.288077 0.080976 -0.425942 0.172329 0.015099 -0.222068
1405 -0.076007 0.084233 -0.107087 -0.363724 -0.207026 0.115727 -0.100351 -0.357184 0.099175 -0.044391 -0.496818 -0.053832 -0.188969 -0.277680 -0.411277 0.031147 0.083313 0.101854 -0.289604 0.082808 -0.114617 -0.014139 -0.229122 -0.471900 -0.156946 -0.402659 0.079026 0.120746 -0.132956 -0.129612 -0.171312 0.376004 -0.164424 -0.177559 0.369933 -0.302911 -0.275878 0.064716 0.118154 -0.161311 -0.099782 -0.216980 0.061187 0.019961 -0.101966 -0.128714 -0.028489 0.309135 0.146525 -0.041636 0.055630 0.013481 0.398911 0.240945 0.030106 0.080250 0.202736 -0.227944 0.161410 -0.547943 -0.258214 0.126232 0.100364 -0.427561 -0.278639 -0.016603 -0.001545 -0.106981 0.293546 -0.409538 -0.299068 0.203297 -0.267272 0.342380 -0.050940 0.185642 0.060128 -0.182593 0.054228 -0.051224 0.154675 0.323285 -0.093259 0.009198 -0.162049 -0.463765 0.160974 -0.190663 -0.146151 0.093866 0.116021 0.100167 0.262209 0.072484 -0.114790 -0.098988 0.465780 0.011598 -0.064849 -0.005461 -0.150302 0.110886 -0.109787 0.228563 -0.069333 -0.337795 0.274747 0.526974 -0.154770 -0.116914 0.275578 0.155838 0.034664 0.252424 0.432378 0.363556 0.042682 0.138356 -0.172505 -0.473981 0.250499 -0.037846 0.281443 0.028779 0.168185 0.445988 -0.173372 0.120705
1797 0.089625 0.119917 -0.400945 0.123143 0.015835 -0.087430 0.038707 0.105574 -0.004157 -0.279701 0.228499 0.314336 -0.271452 0.298616 -0.021425 0.197538 0.148932 -0.012123 -0.132498 -0.101477 0.031699 -0.145406 -0.291358 0.230739 0.097652 -0.267138 0.125626 -0.019889 -0.481114 0.171118 -0.010622 0.063474 -0.079772 -0.076434 -0.124216 -0.060648 0.037114 0.149047 0.168816 -0.036040 0.165817 -0.237884 0.169807 -0.022408 0.097544 0.069734 -0.108526 0.080659 0.151045 -0.145964 0.102565 0.160920 0.214483 0.328282 0.166069 -0.141363 0.454692 -0.130259 0.418639 -0.005319 -0.144994 0.578881 -0.021263 -0.030461 -0.093338 -0.238396 -0.339273 -0.253254 0.081390 0.149819 -0.201939 -0.146950 -0.160070 -0.183397 0.072722 0.189044 0.020972 -0.024833 0.106016 -0.115153 0.071405 -0.028312 -0.044634 0.139842 -0.063883 0.302978 -0.133507 0.380731 0.107953 -0.370558 0.108890 -0.171299 0.203182 0.173081 -0.705913 0.378444 0.112954 0.269025 -0.112593 0.127396 -0.251151 0.390962 -0.287177 -0.335855 -0.219509 -0.286498 0.146557 0.022022 0.026814 -0.362556 0.297963 0.015158 -0.296164 -0.122777 -0.073689 0.124178 -0.288149 0.392393 -0.296342 -0.095832 0.254525 0.095041 0.139338 0.068589 -0.394301 0.227667 -0.021605 -0.164749
369 -0.195396 0.221973 -0.553096 0.190023 -0.041401 0.495683 -0.079379 0.093942 0.124402 -0.292801 0.175401 -0.215247 -0.251403 -0.040838 0.098362 -0.080843 0.077024 -0.028446 -0.277569 0.247308 -0.029600 -0.305558 -0.223759 -0.080159 0.203427 0.054374 -0.340325 0.062436 -0.206114 -0.347774 -0.229258 0.086187 -0.086465 -0.146197 0.108311 -0.100460 0.008324 -0.106454 0.315127 -0.005769 0.197061 -0.244760 0.178488 0.419185 -0.132099 0.115872 0.017137 0.100071 0.364419 -0.319529 0.193785 0.139734 0.078791 -0.126923 0.059839 -0.345546 0.190819 -0.145299 -0.037733 0.179664 0.064288 0.288210 0.272519 0.076866 0.062128 -0.200373 -0.230734 -0.341924 -0.180628 0.064925 -0.160803 -0.279517 -0.106727 0.059508 0.151248 0.128344 -0.233371 -0.102646 -0.117919 -0.093666 -0.199088 -0.203950 -0.203154 0.075391 -0.168462 0.262957 -0.219805 0.405426 0.171635 -0.085060 0.043041 -0.020494 0.137351 -0.053452 0.023567 0.141672 0.308613 0.340237 -0.080771 -0.039279 -0.082090 0.334735 -0.176495 -0.389593 0.083876 0.209752 -0.036693 0.104611 -0.007314 -0.375335 -0.154507 -0.277610 -0.038089 0.187794 -0.019230 0.322411 0.134461 0.468123 -0.248781 -0.219943 0.275484 0.105012 0.263118 -0.074874 -0.245943 -0.023140 0.200543 -0.137962
1646 -0.007043 0.183552 -0.627064 -0.043216 -0.116359 0.031826 0.252648 0.238927 -0.168435 -0.067446 -0.109183 -0.166187 -0.443509 0.186701 -0.090283 0.120771 -0.278183 -0.152000 0.482972 0.150198 -0.044620 0.277956 -0.388711 0.008832 -0.033019 0.010427 0.161746 -0.124101 0.147561 0.066737 0.020022 -0.139604 -0.229532 -0.174497 0.027117 -0.119896 -0.146434 -0.064085 -0.094742 -0.002632 0.325343 0.203616 0.332984 0.015459 0.156055 -0.191605 -0.330791 0.372927 0.029576 -0.216282 0.074912 0.249597 -0.025485 0.339965 -0.180169 -0.355466 0.122617 -0.191370 0.009236 0.176245 -0.023068 -0.044407 0.242208 0.173320 -0.104034 0.184219 -0.115941 0.033697 0.106768 -0.250897 -0.415153 0.086082 -0.392363 -0.067833 -0.014591 -0.034176 0.247956 -0.253174 0.171104 -0.295044 -0.077527 -0.136524 -0.060299 0.075195 -0.370455 0.229287 0.095095 0.416365 -0.116109 -0.437062 -0.098177 -0.021604 0.129591 -0.033742 -0.433101 -0.143212 0.197214 0.159169 -0.070676 0.163434 -0.062653 0.621644 -0.494659 -0.329170 -0.074139 0.013908 -0.031698 0.258367 -0.018103 -0.163747 0.387127 0.147920 -0.197303 -0.119912 0.072908 0.165076 -0.063806 0.379123 0.050390 -0.016390 -0.036722 -0.144001 0.172152 0.307534 -0.366082 -0.019698 0.230032 -0.003710
701 -0.052701 0.234826 -0.103342 0.377097 -0.207336 0.036744 0.011903 0.265757 -0.122255 -0.200940 0.083840 -0.010167 -0.089576 0.199634 0.305481 0.248048 -0.131848 -0.244762 -0.280580 -0.265137 -0.079048 -0.158832 -0.261872 -0.059417 0.043727 0.110154 0.410269 0.100402 0.077924 0.146455 0.172576 -0.308687 -0.063768 -0.108916 -0.013041 -0.133225 0.172246 -0.206598 0.186888 -0.276707 0.276845 -0.124143 0.194153 0.190272 0.069954 -0.388440 -0.108846 0.214820 -0.131021 -0.179987 -0.059416 -0.148834 0.004375 0.123315 -0.086379 -0.042239 0.684260 -0.447658 0.184879 0.078637 -0.308256 0.506660 0.180156 -0.001688 -0.052534 -0.239231 -0.216087 -0.233780 0.075002 -0.032427 -0.248259 -0.224991 -0.310336 -0.054044 0.142242 0.000543 -0.134904 -0.356345 0.031708 -0.640673 0.019174 -0.142729 -0.273838 0.135372 -0.025547 0.148962 -0.284182 0.370463 -0.098900 -0.094682 0.048815 -0.122315 0.369674 -0.134734 -0.077341 0.084642 0.049339 0.094427 0.150229 0.025308 -0.251714 0.521403 0.185363 -0.303197 0.218668 -0.390342 0.122316 0.193277 -0.045909 -0.214324 0.226360 -0.116395 -0.408736 -0.274351 -0.063965 0.255016 -0.117311 0.478885 0.001378 -0.263868 0.175471 -0.149672 -0.061802 0.166163 -0.007554 0.060135 0.309155 -0.085189
675 -0.229079 0.144165 0.009881 -0.431093 -0.177538 -0.037187 -0.097310 -0.190392 0.020578 -0.360134 -0.257391 -0.182164 -0.067371 -0.364859 -0.267680 -0.159260 -0.034428 0.336257 -0.184530 0.076785 -0.329588 0.021990 -0.076280 -0.173894 -0.153965 -0.177472 0.163887 0.144674 -0.091309 0.111003 -0.085410 0.229874 -0.187748 -0.086746 0.212621 -0.451850 -0.200118 0.050768 0.077150 -0.176151 -0.002370 -0.253280 -0.126033 0.300605 -0.306209 -0.094357 0.096259 0.131743 0.354453 0.118760 -0.043472 -0.016001 0.358824 0.233293 -0.195126 0.393961 0.250248 -0.514053 0.165651 -0.470397 -0.273487 0.349518 -0.037327 -0.427387 -0.428041 0.312557 -0.087418 0.019738 0.017937 -0.436071 -0.073975 0.262914 -0.031048 0.080246 -0.016414 0.253477 -0.044121 -0.112897 0.187825 -0.466678 -0.167275 0.110935 -0.143673 0.033663 0.030042 -0.190679 0.216993 0.026274 -0.078436 -0.087782 0.048960 0.213323 0.361693 0.164944 0.213871 0.112570 0.390557 0.004508 -0.247759 0.035313 -0.100536 0.253071 -0.175054 0.040894 -0.056755 -0.113309 0.023404 0.122703 -0.073231 0.057256 -0.144117 -0.024455 -0.100059 0.066704 0.372604 0.368018 -0.086220 0.241308 -0.361038 -0.402875 0.340598 -0.463379 -0.085167 -0.286729 0.005296 0.324887 -0.213038 0.328019
2169 -0.387506 -0.065549 -0.229749 -0.398019 -0.100231 -0.230634 0.204035 -0.423305 0.083256 -0.088887 -0.297482 -0.126507 0.142364 -0.450459 -0.099483 -0.099554 -0.070680 -0.127657 0.359158 0.291725 -0.152945 0.135924 -0.137782 -0.137750 0.160080 0.047018 0.421448 0.132365 0.239152 -0.191846 -0.542440 0.228495 -0.335598 -0.275577 -0.097335 -0.641317 -0.372810 0.418760 0.565359 -0.282854 -0.034516 0.050041 -0.004232 0.085346 0.029339 -0.128820 0.245222 0.421854 0.094660 0.309545 0.597518 0.498620 0.618165 0.364347 -0.158537 0.541305 0.301840 -0.260649 0.446966 -0.193333 0.134221 0.089930 0.057535 -0.166890 -0.166730 -0.054334 -0.427068 -0.312307 0.052801 -0.589692 0.244131 0.477344 -0.475042 0.251466 -0.117877 0.054815 0.035933 -0.183784 -0.164921 -0.007880 -0.156538 -0.394911 -0.104401 -0.361899 -0.123079 0.043645 -0.065346 0.456630 -0.171516 0.357915 0.010308 -0.045478 0.399150 -0.026226 0.311144 0.146115 0.221866 0.483753 0.176125 -0.305927 -0.294156 -0.059807 -0.363261 -0.111222 -0.054176 0.301027 0.094926 0.048107 -0.290484 -0.349623 0.183067 -0.157567 0.036597 -0.041867 -0.071021 -0.178047 0.011790 -0.235956 0.137331 -0.241476 0.284797 -0.225353 -0.013264 0.232752 -0.022520 0.155081 0.201844 0.004090
2098 0.296539 0.497875 -0.388601 -0.074455 -0.468025 -0.050631 -0.008421 -0.256396 -0.064875 -0.192457 -0.073437 -0.167051 -0.104113 -0.129990 0.020167 0.006110 -0.118528 -0.104304 0.163598 -0.351113 -0.240070 0.325103 -0.144029 0.145924 0.139234 -0.325933 0.109740 -0.145244 -0.187609 -0.131953 -0.311360 0.029002 -0.195383 -0.189109 -0.186678 -0.141365 0.005572 0.199010 -0.061806 -0.262536 0.275869 0.031284 -0.130316 0.207752 -0.015391 -0.256955 0.098263 -0.428896 0.016178 -0.082425 -0.168916 -0.116916 0.440829 0.453344 0.052349 -0.114520 0.133143 -0.004829 0.000680 0.209778 -0.393484 0.149131 0.170511 -0.060544 -0.278066 0.029175 -0.273783 0.220853 -0.147862 -0.246258 -0.300615 0.038825 -0.005218 -0.408854 -0.240932 0.394971 -0.171912 0.095642 -0.269055 -0.169014 -0.236636 0.186703 -0.687060 0.200805 -0.222107 0.176131 0.108762 0.383249 -0.192813 -0.235725 0.082444 0.060219 0.174057 0.205834 0.305284 -0.171596 0.030666 0.039860 0.264908 -0.193982 -0.149707 0.184601 -0.075952 -0.251492 -0.080347 0.100252 0.022055 -0.066356 -0.008377 -0.287832 0.101153 -0.219722 0.221835 0.268105 -0.170453 0.523701 -0.397032 0.251154 -0.120890 -0.350119 0.004414 0.365707 -0.080482 0.499856 0.009296 -0.098454 -0.203077 0.148257
484 -0.100688 0.109956 -0.075770 0.119489 -0.359612 0.240324 -0.316168 0.222930 0.327561 -0.123112 0.128088 -0.395479 -0.089243 0.048119 -0.092770 -0.024744 0.372907 -0.388192 -0.178224 -0.159123 0.102959 -0.224472 -0.473086 0.011672 0.086440 -0.053762 -0.187967 0.087101 -0.073888 0.271464 0.043472 0.413540 0.200735 0.244586 -0.118104 -0.400431 0.131020 -0.269458 0.051231 -0.577522 0.030727 -0.415903 0.120522 0.327346 -0.060043 0.011411 -0.134730 0.283148 0.328661 -0.236160 -0.049363 0.450256 -0.095199 0.089724 -0.058908 -0.026830 0.633359 -0.123499 0.070041 -0.151407 -0.359672 -0.276721 -0.277666 -0.007871 -0.321917 0.196557 -0.183715 0.093195 0.060767 -0.463020 0.303617 0.202657 0.106503 0.170953 0.223906 0.139563 0.043593 0.184099 0.072201 -0.025671 -0.098660 -0.058540 -0.161087 0.042445 -0.343911 0.136104 0.210527 0.074615 -0.224364 -0.399581 -0.194472 0.073487 0.033050 -0.116260 0.009848 0.100178 0.262018 0.173033 -0.008303 -0.167939 -0.328855 0.403866 -0.583500 -0.314145 0.213916 0.094449 0.013863 -0.294088 0.077315 -0.184419 0.325122 -0.138538 0.051774 0.011540 -0.181049 0.147867 -0.173839 -0.036007 -0.188423 0.087218 -0.065628 -0.052897 -0.087378 0.399074 0.167281 0.148695 0.110462 -0.251977
822 0.349550 0.153469 -0.396092 0.247176 -0.458678 0.058083 0.057544 0.042280 -0.095291 -0.143007 0.151541 -0.139819 -0.247537 0.203905 0.154618 -0.013693 0.044450 -0.011115 0.292422 -0.172923 0.161524 -0.080263 -0.095876 -0.132100 -0.185553 -0.080564 0.256524 0.012632 0.250119 0.254032 -0.269396 0.301963 -0.287729 0.204977 0.124698 -0.116382 -0.032010 -0.088325 0.296025 -0.220753 0.037190 -0.216085 -0.257493 0.474158 0.245230 -0.121338 0.134070 0.042066 -0.022414 -0.093590 -0.187325 0.176040 0.367021 -0.082686 0.011238 -0.146805 0.367799 -0.412645 0.223254 -0.153957 -0.016581 0.459243 0.083225 -0.117253 0.039857 -0.022880 0.112710 -0.114488 -0.038089 -0.240334 -0.098997 0.088423 -0.447227 -0.064485 0.109401 -0.180496 -0.318747 -0.383949 0.229206 -0.026313 -0.054913 0.144968 -0.246227 0.005932 0.009298 0.176444 -0.398268 -0.013895 0.018072 -0.042136 -0.259889 -0.177345 -0.289552 -0.156195 -0.321511 -0.216054 -0.157894 0.504505 -0.032641 -0.244646 -0.208858 0.310361 -0.069330 -0.349170 -0.049129 -0.046118 -0.013166 0.200820 -0.234487 -0.038713 -0.020373 0.042589 -0.280737 0.039205 0.137405 0.018479 -0.403704 0.557520 -0.191474 0.036813 -0.084225 -0.180809 -0.013280 0.397798 -0.253074 -0.238360 -0.097641 -0.424276
1501 0.012103 0.204692 -0.316618 0.243612 -0.287641 0.002277 -0.025321 0.361269 -0.165743 -0.032973 -0.106549 0.177809 -0.075364 0.127313 0.129552 0.195819 -0.074614 -0.372671 -0.079822 -0.199683 -0.194331 -0.230478 -0.452394 -0.232555 -0.060080 0.005160 0.226676 0.311732 0.085742 0.221308 0.098359 -0.182883 -0.213852 -0.108190 0.020581 -0.097402 0.226604 -0.226363 0.277591 -0.366610 0.164078 -0.273863 0.160751 0.199832 0.118148 -0.312945 -0.083034 0.160809 0.065642 -0.147388 -0.161834 0.041577 0.024332 0.262018 -0.072895 -0.052404 0.508201 -0.454999 0.115531 0.059795 -0.207137 0.311610 0.285721 0.188316 -0.109292 -0.360152 -0.264720 -0.304208 -0.016310 -0.105450 -0.266890 -0.141995 -0.023055 -0.066766 0.047535 -0.221837 0.049786 -0.324768 -0.025767 -0.597739 -0.061831 -0.267965 -0.302630 0.353440 -0.069956 0.061971 -0.183466 0.408315 0.052823 -0.294752 0.113383 -0.080714 0.319345 -0.168099 -0.052824 0.110135 0.041999 0.149148 -0.096329 0.003084 -0.058409 0.414913 0.021775 -0.379960 0.088622 -0.229366 0.138504 0.210339 -0.017637 -0.147355 0.265208 -0.198589 -0.348450 -0.405850 0.080005 0.207102 -0.119895 0.545724 0.089882 -0.377722 0.090024 -0.085052 -0.102366 0.185927 -0.270526 0.050184 0.319458 -0.151360
1140 -0.178801 0.364276 -0.265049 0.054494 -0.403182 0.286631 0.300046 0.184082 0.223256 -0.129189 -0.049493 -0.082038 -0.033979 -0.076701 -0.246672 0.004976 0.107375 -0.438092 0.078561 -0.110391 -0.034390 -0.208060 -0.086637 0.222630 -0.165240 -0.202191 -0.020945 0.000640 -0.059107 0.116414 0.180446 0.114965 0.064592 -0.149831 0.039973 0.041708 0.219500 0.015940 -0.179962 -0.185562 0.198636 0.185433 -0.043173 0.073403 0.010418 -0.338632 0.176510 -0.039674 0.258609 -0.039479 0.173940 0.016454 0.124602 0.133666 0.189323 -0.427791 0.214331 -0.150875 -0.025116 -0.339332 -0.369647 0.093136 -0.105480 0.096780 -0.324825 -0.167826 -0.373568 -0.273253 -0.198562 -0.482027 0.144376 -0.105889 0.002306 -0.247228 -0.108220 0.614890 0.005000 -0.323929 0.013946 -0.011076 -0.376915 -0.133515 -0.033219 0.284255 -0.196347 -0.280557 0.667317 0.098591 -0.364418 0.021505 0.103607 -0.207243 -0.013224 -0.195188 -0.000042 -0.132673 0.158876 0.374781 -0.053935 0.157299 0.012792 0.182043 -0.012963 -0.515716 -0.262548 0.129665 -0.042486 -0.284512 -0.314401 -0.164971 0.095752 -0.199829 -0.108034 -0.030316 0.191179 0.426238 -0.123135 -0.101940 -0.040310 -0.196696 0.074457 -0.088081 -0.056301 0.091009 -0.539186 0.141223 -0.334514 -0.016230
465 0.309255 0.201585 -0.529552 0.468657 0.007001 0.534692 -0.083489 -0.140776 -0.117494 0.084153 -0.209018 0.113591 -0.220948 0.129964 -0.133812 -0.047466 0.234133 -0.168423 -0.037115 0.132419 -0.212469 -0.382490 0.178784 -0.468640 -0.104451 0.318353 0.098547 0.120581 -0.362194 -0.091800 0.336920 -0.249068 -0.143103 -0.168312 0.287024 -0.027215 0.082887 -0.081088 0.269165 0.160745 0.208426 -0.210052 -0.014353 0.280381 0.092170 0.069522 0.182826 0.295446 -0.050904 -0.424544 0.051952 0.322468 -0.179222 -0.104823 -0.051123 0.167058 0.188794 0.107612 0.112274 0.078745 -0.235944 0.277638 0.206750 0.096275 -0.118362 -0.036772 -0.158962 -0.057595 0.022329 -0.195392 -0.303302 -0.157526 0.116555 0.091786 -0.377212 0.350292 -0.043223 0.116440 -0.351279 0.026087 -0.091074 -0.391212 -0.499533 -0.000950 -0.410848 0.045586 -0.103411 0.544218 -0.178741 -0.309183 -0.115234 -0.276512 0.288791 0.289223 -0.095019 -0.078946 0.230218 0.143217 -0.170842 0.000245 -0.057470 0.464383 -0.024315 -0.169790 0.302433 -0.017324 0.120968 -0.061011 -0.142233 -0.055949 0.315273 -0.011598 -0.035310 0.058906 0.060605 0.001755 -0.245134 0.380546 -0.058060 -0.214453 0.306781 -0.308600 0.124098 0.306647 -0.527008 -0.073064 0.022831 -0.289688
1490 -0.132051 -0.098802 0.392731 -0.193979 -0.332715 -0.212524 -0.019729 -0.275699 0.040272 -0.269427 -0.186601 -0.192225 -0.407763 -0.342295 -0.224345 -0.229258 0.575567 0.191036 0.069302 0.578045 -0.046274 -0.011751 -0.216427 -0.073561 0.012314 -0.170553 0.215585 0.181346 -0.058068 0.063025 -0.142166 -0.245028 -0.048735 -0.029196 0.238587 -0.559980 -0.230222 -0.030405 0.089486 -0.307658 0.248366 -0.309600 -0.242923 0.071303 0.164676 -0.273105 0.022683 0.321375 -0.089659 0.018496 0.016688 0.047480 0.184188 0.093808 -0.305575 0.216029 0.361572 -0.145686 0.123448 -0.217029 -0.271269 0.259947 0.022130 -0.056348 -0.310547 0.083252 0.037760 -0.057888 -0.047738 -0.287261 -0.081868 0.181412 -0.164423 -0.039518 0.027605 -0.208327 -0.201594 -0.321263 -0.029531 -0.020084 -0.346679 0.037869 -0.319504 -0.185351 -0.360007 0.117983 0.014760 0.126148 -0.396034 -0.074506 0.276344 0.034082 0.288241 0.217707 0.081604 -0.037031 0.454410 0.171271 0.010395 -0.339997 0.004386 0.095912 -0.470148 0.038732 -0.581831 0.131360 0.154944 0.340143 -0.255607 0.047916 0.059275 -0.058053 0.383451 -0.057413 0.282393 -0.047891 -0.260729 -0.105519 -0.361504 -0.466264 0.127946 -0.035767 0.226598 -0.175934 -0.016165 0.082777 -0.080091 0.078021
1166 0.042945 0.047723 0.064984 0.688476 -0.179670 0.204919 -0.040505 -0.283365 -0.270398 0.130734 0.058721 -0.235631 -0.769875 0.014574 0.008210 0.163057 0.377489 -0.038062 0.014456 0.017624 -0.114233 0.041862 0.031399 -0.158426 0.380538 -0.132699 -0.070156 -0.047463 0.219139 0.065820 -0.350801 0.077431 -0.591253 -0.083910 -0.276974 -0.169787 -0.193903 0.400304 -0.020685 -0.384188 -0.146600 0.004707 0.096743 0.201487 -0.164350 -0.100601 -0.302787 -0.218470 0.210900 -0.661820 -0.089657 0.567353 0.270199 0.031390 -0.049739 -0.338822 0.195392 0.291276 0.156653 -0.042613 0.068230 0.349689 0.283582 -0.084238 0.147033 0.365204 -0.429611 -0.201607 -0.093774 -0.588450 -0.337692 0.380468 -0.028336 0.232461 0.068041 0.020836 -0.491997 0.193593 -0.132720 -0.105582 0.379955 -0.044957 -0.063258 0.284588 -0.078071 0.011178 0.324727 0.246873 0.178809 -0.285113 -0.194269 -0.437225 0.395289 0.029684 0.432430 -0.009113 0.037214 -0.020258 -0.142877 -0.187233 -0.318273 0.553702 0.407934 -0.201491 -0.154332 -0.060537 0.210767 0.168109 -0.140463 0.036967 -0.065538 -0.090904 -0.002454 0.291109 -0.125752 0.370827 -0.143086 0.579130 -0.058544 0.081703 0.418145 -0.055971 -0.135741 0.243764 -0.025068 0.153729 -0.342962 -0.298996
1743 -0.477902 -0.210442 0.203590 -0.054311 -0.149645 0.318439 0.106370 0.132931 -0.130812 -0.160693 0.074445 -0.413349 -0.113325 -0.248240 -0.239499 -0.013981 0.512639 0.111851 0.093838 -0.056464 -0.034320 -0.398397 -0.354169 -0.034644 0.065183 -0.134299 -0.055201 0.208019 0.168326 0.039570 -0.119939 0.404773 -0.037937 0.094197 0.369030 -0.129826 -0.110254 0.234666 -0.018272 0.021595 -0.270056 -0.090477 -0.226766 -0.154252 -0.061124 -0.156980 0.004366 0.035675 -0.135700 0.031470 0.142766 0.068300 0.232833 0.049039 -0.154238 -0.108658 0.429160 -0.123732 0.351385 -0.033748 -0.105278 0.315306 0.338888 -0.228233 -0.244076 0.128515 -0.160269 0.048331 -0.020606 -0.770697 -0.090956 -0.287702 -0.018974 0.256124 0.496224 0.203002 0.141424 0.206483 -0.092024 0.067163 -0.896819 0.085219 -0.619733 -0.006590 0.220583 -0.192448 0.097746 -0.101377 -0.015972 0.140300 0.025273 -0.025357 -0.097744 0.156028 -0.155333 0.026226 0.089948 -0.017996 0.058664 -0.257572 -0.194420 0.215945 -0.257478 0.055433 0.002494 0.237563 -0.429277 0.118978 -0.000530 -0.303119 0.048704 0.157856 0.053257 0.059679 0.059616 0.100147 -0.117216 0.140857 -0.323086 -0.565623 -0.050831 -0.074163 0.101540 0.302473 -0.193006 0.252281 -0.412041 -0.118737
1406 0.121084 -0.113143 -0.367975 0.272926 -0.111596 0.259547 -0.013636 0.265841 0.265813 -0.143904 0.132594 -0.578265 -0.152622 0.301892 -0.419924 -0.189184 0.053177 0.095375 -0.211287 0.222999 -0.250823 -0.230821 -0.540639 -0.023132 0.214930 0.314400 0.251393 -0.208511 -0.099439 0.190674 0.465677 0.110862 0.149770 -0.363785 -0.074716 -0.146987 -0.250831 -0.147328 0.107663 -0.079772 0.024460 -0.398100 0.181617 0.156100 -0.101108 -0.097545 -0.104656 0.125776 -0.086220 -0.427180 0.450582 0.101661 0.027098 0.081694 -0.035114 -0.079605 0.333950 -0.208430 -0.246691 -0.087488 -0.304249 0.213196 -0.206005 0.324249 0.289415 0.030629 0.043649 -0.293042 0.035699 0.114384 -0.011405 -0.011376 -0.281816 -0.078023 -0.076962 -0.030174 -0.247368 0.196047 0.134443 -0.079854 -0.265375 -0.138839 -0.182834 0.160730 -0.146644 -0.122609 0.008830 0.330372 -0.014577 -0.098991 -0.257477 0.076222 0.231105 -0.091336 -0.132141 -0.230052 0.396374 0.211703 -0.009725 -0.161399 -0.103272 -0.062496 -0.077515 -0.341799 0.040077 -0.042115 -0.019211 0.278811 -0.347128 -0.032198 -0.330047 -0.252476 0.027073 0.187820 0.019524 -0.191413 -0.051471 0.517941 -0.136722 -0.416885 0.339432 -0.077362 -0.100397 -0.059658 -0.124293 -0.015938 -0.037535 -0.058067
1552 -0.158606 0.229074 -0.474438 0.240826 -0.064078 0.119289 -0.326129 -0.136173 -0.161445 -0.101825 -0.057480 -0.064567 -0.307024 0.184720 -0.437491 -0.201501 0.163406 -0.018066 0.050876 0.154810 0.189736 -0.126742 -0.229766 -0.123229 -0.029751 0.211685 0.263515 -0.064324 0.046941 0.174164 -0.106414 0.010573 0.127095 -0.123985 -0.113744 -0.018878 -0.322346 0.182724 0.015380 -0.083808 -0.225013 0.072476 0.098922 0.112324 -0.356996 0.054538 -0.235298 0.056583 0.406933 -0.527547 0.280398 -0.044772 -0.068135 -0.099556 0.058325 -0.117019 0.122968 -0.068750 -0.212656 -0.008642 -0.359399 0.262300 -0.343970 0.156625 -0.005376 0.335997 -0.281620 -0.268322 0.116892 -0.026749 0.089624 -0.128456 -0.158935 0.243072 0.082965 -0.156028 -0.064753 -0.094288 -0.156880 0.342000 -0.003355 0.059863 -0.550289 0.401452 -0.194457 0.055927 0.126675 -0.077956 0.178861 -0.015166 -0.309799 -0.429288 -0.036091 -0.152983 -0.240190 -0.159032 0.104403 0.281293 -0.105226 -0.343082 -0.248417 0.422897 -0.190507 -0.364056 0.381563 -0.160303 -0.198741 0.435844 0.078787 -0.437581 -0.241094 -0.189943 -0.052594 -0.156120 -0.377565 0.086365 0.009371 0.190628 -0.048940 -0.176878 0.488843 -0.296716 0.129511 0.101025 -0.091413 0.062686 -0.025940 -0.219615
94 -0.246148 0.068565 -0.483645 0.388114 -0.003518 -0.005615 -0.164956 -0.197502 0.323902 -0.002910 0.179966 -0.255966 -0.138641 0.043247 0.018537 -0.156020 -0.066367 -0.123757 0.190212 0.089111 -0.078220 -0.278522 -0.202550 -0.201098 0.077313 -0.236596 -0.153329 0.086898 -0.053010 -0.080392 0.012352 0.052123 0.175306 0.113917 -0.273232 -0.015291 -0.196914 0.054552 0.112226 0.091213 -0.157581 -0.186081 0.045284 0.179982 -0.311314 -0.143695 -0.214589 0.133636 0.295755 -0.391839 0.160788 0.124000 0.141882 0.225406 0.086231 -0.468032 0.021449 -0.107618 0.167037 -0.007624 -0.091132 0.197936 -0.203449 0.160505 0.017083 -0.115165 -0.197868 -0.108419 -0.022102 -0.293961 -0.072384 -0.160728 -0.248699 0.297472 -0.123715 -0.127428 -0.218145 -0.161180 -0.117216 0.060885 -0.093535 -0.021180 -0.310063 0.174697 0.010908 0.192458 -0.001185 -0.001806 0.038880 0.018125 -0.258135 -0.091456 0.246405 -0.142432 0.024617 0.039531 0.431674 0.338548 0.012002 -0.393377 -0.053376 0.315305 -0.105009 -0.169639 0.157103 0.051892 -0.398489 0.384352 -0.441577 -0.354016 -0.052160 -0.548658 -0.238117 -0.037314 0.084618 -0.316156 -0.297468 0.275746 0.141895 -0.244245 0.322095 -0.080070 0.068513 -0.228126 -0.310546 -0.056225 -0.035319 -0.401752
1848 -0.147791 0.169740 -0.472282 0.448860 -0.129387 0.151510 -0.210047 -0.153916 0.282626 -0.017352 -0.010146 -0.275506 -0.083210 0.266185 0.047236 -0.110652 0.038083 -0.268960 0.304973 -0.006470 -0.123786 -0.219493 0.046296 -0.187213 0.041690 -0.098078 -0.131555 0.263514 0.103939 0.147335 -0.045035 0.084812 0.315936 0.003059 -0.313387 -0.033304 0.037721 0.044405 -0.101963 0.005852 0.286805 -0.090082 0.220354 0.224362 -0.201765 -0.152799 -0.232988 0.429484 0.331327 -0.314627 0.153360 -0.001447 0.011304 0.463686 0.044855 -0.572653 0.252078 -0.061041 0.033495 0.076500 -0.312634 0.488310 0.031354 0.293288 -0.042452 -0.121352 0.097332 -0.269866 -0.030538 -0.181992 0.120091 -0.166273 -0.147451 0.397687 0.001520 -0.023508 0.120978 -0.181733 -0.077782 -0.005513 -0.214458 0.076498 -0.247795 0.453752 -0.223573 0.303955 -0.164781 0.030065 0.022967 0.075231 -0.334458 0.164455 0.343502 -0.188293 0.113357 0.032483 0.295951 0.365398 0.032459 -0.399477 0.006597 0.174705 -0.242029 -0.539596 0.018909 -0.063233 -0.178149 0.197305 -0.313679 -0.099520 -0.103687 -0.295597 -0.001807 0.183028 -0.064067 0.290825 -0.325021 -0.045764 0.019381 -0.140719 0.130640 0.003744 0.105135 -0.231737 -0.219643 0.015342 -0.189247 -0.194972
1444 -0.020196 0.127850 0.209597 0.136318 -0.229310 -0.290747 0.259560 -0.225747 0.307995 -0.318027 -0.348395 -0.020416 -0.392295 -0.552478 -0.614501 -0.001474 0.416016 -0.068803 0.111546 0.396249 0.180792 -0.044927 -0.131038 -0.317273 -0.206322 -0.065002 0.034464 0.278917 -0.312584 0.293841 -0.091472 -0.292934 -0.135226 -0.126772 0.243620 -0.625233 -0.160746 0.047038 0.029018 -0.180071 -0.030856 -0.351851 -0.102383 0.014910 0.215704 -0.464741 -0.078088 0.604314 -0.135067 0.141918 0.015614 -0.207765 0.312128 0.195533 -0.486158 0.243468 0.155156 -0.308994 -0.063601 -0.050015 0.098529 0.390042 0.215253 -0.016426 -0.236238 0.027392 0.015006 0.048002 -0.174325 -0.093328 -0.082486 0.277976 -0.262846 -0.152859 0.198830 0.241715 -0.073881 0.105394 -0.336166 -0.202459 -0.295011 -0.017070 -0.379276 -0.073034 -0.136159 -0.018766 0.114841 0.231742 -0.374860 -0.073102 0.239804 -0.106631 -0.074474 0.216504 0.285838 0.062833 0.486370 -0.001651 0.050055 -0.020445 -0.305617 0.166961 -0.411383 0.215951 -0.399034 0.276872 0.061149 0.270975 -0.134800 0.036930 -0.246359 -0.003674 -0.063416 -0.170592 0.285745 0.067840 -0.098850 0.366141 -0.244105 -0.412656 -0.267250 -0.225585 0.196032 -0.254123 0.039683 0.300319 -0.146642 -0.274025
320 -0.298241 0.002398 -0.079683 -0.486571 0.033182 0.127674 0.110295 0.057235 0.023926 -0.354279 -0.452098 -0.239032 0.091072 -0.274290 -0.079251 -0.095878 0.408384 -0.151038 -0.174507 0.519454 -0.049654 -0.064429 -0.094789 0.066706 -0.181645 -0.276652 0.069990 0.027977 -0.281938 0.455409 -0.229326 -0.117976 -0.194109 -0.232339 -0.073860 -0.155134 -0.178377 0.343656 -0.030766 -0.058126 0.213290 -0.027460 0.286617 -0.470494 0.209858 -0.274367 -0.048077 0.086935 0.060881 0.243133 0.216110 0.008160 0.240494 -0.148935 -0.251578 0.196125 0.582745 0.003346 -0.009943 -0.065565 -0.076289 0.144680 0.035943 -0.142912 -0.176147 0.206778 -0.410300 -0.071762 -0.004790 -0.251188 -0.191614 0.244923 0.033920 -0.021387 0.056577 0.120254 0.181998 -0.241703 -0.264021 -0.171454 -0.090539 0.006005 -0.115674 -0.125805 -0.487993 0.102352 0.091120 0.030409 -0.401540 0.006192 -0.023650 -0.143504 0.188877 0.057339 -0.268987 0.012457 0.475463 0.027137 -0.077547 -0.369579 -0.148093 0.213923 -0.063328 0.071105 -0.252250 -0.202145 0.178549 0.084195 -0.332214 0.045440 -0.286646 -0.093742 0.203746 0.028775 0.593991 0.160229 -0.266877 0.137619 -0.382002 -0.580637 -0.216378 -0.173995 0.105164 -0.229542 -0.136816 0.623479 -0.240902 -0.125702
1183 -0.032219 0.425686 -0.206432 0.036193 -0.178606 0.330747 0.337749 -0.028493 0.003764 -0.045185 0.248166 -0.135858 0.084197 0.088604 -0.386704 -0.305066 0.496245 0.060627 -0.117067 -0.009423 -0.021102 0.306879 -0.234650 -0.160140 0.031266 -0.176067 -0.107255 0.225098 0.119186 0.038437 0.205375 0.178722 -0.138406 0.388109 -0.060420 -0.141467 -0.212207 0.059882 0.207807 0.208122 0.026940 0.144005 0.153388 -0.043310 -0.494999 -0.153992 0.159132 0.005042 -0.252679 -0.108385 0.518504 0.200986 0.523245 0.025336 -0.048817 -0.074086 0.347773 0.158808 0.203366 0.115761 0.085302 0.182464 -0.218419 -0.151093 -0.098030 -0.048040 -0.098086 0.376518 -0.264745 -0.309845 0.222482 0.178396 -0.291115 0.105867 -0.180890 0.087199 -0.168089 0.257268 0.035622 -0.097631 -0.358740 0.075731 -0.075240 -0.160654 -0.013326 0.178260 -0.195389 0.151032 -0.121573 0.117809 0.331681 -0.031377 -0.081127 0.097749 -0.174927 -0.049263 -0.039421 0.199528 0.033650 -0.018971 -0.239138 0.429016 0.089687 0.062654 0.109107 -0.251340 0.267150 0.216275 -0.190545 -0.300543 -0.064908 0.182768 0.117300 0.147116 0.401402 0.222889 -0.458012 0.113061 0.133073 -0.520995 0.241960 0.088369 -0.245909 0.059551 -0.030302 0.089406 -0.133574 -0.285499
1358 0.332891 0.224489 -0.181553 0.383707 -0.214886 0.014479 0.070735 -0.000646 0.025848 0.151243 -0.124762 0.007789 -0.311660 -0.341499 -0.289779 -0.001481 -0.055983 -0.024562 0.160446 0.145877 -0.097998 -0.006899 -0.378045 -0.496876 -0.268509 0.049928 0.316198 0.124790 0.090168 0.063901 -0.258151 -0.142098 -0.045796 0.337953 -0.032519 -0.054234 -0.135416 -0.063576 0.191290 -0.109321 0.080983 -0.126235 -0.010430 0.310941 0.136350 0.015446 0.158826 0.236101 0.271129 -0.122931 0.268242 0.383323 -0.213818 0.157439 0.146726 -0.159437 0.356351 -0.417674 0.224380 0.243874 -0.051139 0.446113 -0.016215 -0.251292 -0.059639 -0.227901 -0.110577 -0.040217 0.338319 -0.043212 -0.194131 0.048387 0.009105 0.094075 0.344205 -0.098623 0.266392 0.003762 0.149772 -0.229599 0.151811 -0.489440 -0.330666 0.399219 -0.263343 0.420433 0.134295 0.260101 0.038950 -0.128659 0.116717 0.318951 0.530666 0.071252 -0.391630 -0.092490 -0.002760 0.332115 -0.020490 -0.026178 0.001664 0.172947 0.102083 -0.208505 -0.018315 -0.132958 -0.027184 0.175977 0.073808 -0.545365 0.102656 0.225795 0.035855 -0.011231 0.378970 0.114611 -0.209463 0.114751 -0.336492 -0.073433 0.097442 0.169745 -0.078952 -0.016392 -0.389268 0.012891 -0.199305 -0.095093
791 -0.032534 0.037012 -0.494915 0.201556 -0.133695 0.493474 0.054388 0.038078 0.023579 -0.102467 0.064738 -0.050489 -0.370362 -0.029785 -0.036862 -0.056056 0.137621 -0.324168 -0.236941 -0.210093 0.022465 -0.260444 0.031675 0.069530 0.127599 0.186709 0.181136 -0.049594 -0.039778 -0.019241 0.000158 -0.130767 -0.312098 0.166331 0.104281 -0.328903 0.042251 0.064486 0.025245 0.061559 -0.090438 -0.059589 0.057812 0.270606 0.247325 0.041056 -0.153945 0.222372 0.212182 -0.061882 0.149932 0.057420 0.254202 0.225738 -0.030125 -0.439689 0.099284 -0.383185 0.245253 0.063642 0.094009 0.096764 0.242630 0.047458 -0.160833 0.300919 -0.387400 -0.282087 -0.018690 -0.514498 -0.240913 -0.438888 -0.307260 -0.007330 -0.070819 0.192088 -0.024578 0.128429 0.266329 0.145392 0.085271 -0.065226 -0.463705 0.089148 -0.064985 0.126484 -0.266910 -0.136178 -0.041517 0.039219 -0.126866 -0.072120 0.041284 -0.049819 -0.135962 0.011910 0.155828 0.291769 -0.111298 -0.062125 -0.154486 0.157843 0.101258 -0.462578 0.054100 -0.071982 -0.030029 0.427234 -0.151476 0.059672 -0.189703 -0.121593 -0.000663 -0.065376 -0.247242 -0.088059 -0.052464 0.658046 -0.272865 -0.107225 -0.145669 -0.175116 0.019096 0.024911 -0.238880 0.028691 0.110501 -0.463298
700 -0.112549 0.113526 -0.501531 0.249336 -0.230488 0.095300 0.143203 0.009454 -0.111693 -0.002501 0.028254 -0.133966 -0.201096 0.187379 0.018774 0.012609 0.054790 0.239485 -0.078644 -0.019430 -0.211632 -0.188128 -0.117063 -0.065919 0.104987 0.052227 -0.029652 0.289925 -0.254474 -0.080999 0.020604 0.001194 -0.018442 0.094561 0.126576 -0.022123 -0.210531 0.000031 0.152828 -0.026868 0.289424 -0.452907 0.297904 0.333631 -0.327903 -0.010974 -0.032095 0.236179 0.409800 -0.433015 0.247884 0.246464 0.233997 0.019983 0.062869 -0.436059 0.195963 -0.057162 -0.002284 0.064000 -0.182681 0.336989 0.070392 0.092832 -0.019923 0.148575 -0.243815 -0.136872 -0.146757 0.214853 -0.130651 -0.276953 -0.238489 0.125550 0.136985 -0.134353 -0.155605 0.179687 0.017363 -0.041079 0.015337 -0.009069 -0.350301 0.019111 0.039176 0.009528 -0.259375 0.294879 -0.007762 0.064054 0.032061 -0.002939 0.542018 -0.300320 -0.129489 0.065112 0.385589 0.219812 0.162612 -0.059532 -0.356916 0.225496 -0.041954 -0.204997 -0.132919 0.056395 -0.217952 0.118200 -0.030939 -0.396379 -0.160042 -0.277676 -0.059196 -0.100889 0.035012 0.017360 -0.030037 0.352767 -0.111177 -0.022072 0.362116 -0.211030 0.053570 0.034640 -0.289789 0.070829 0.329931 -0.093233
632 -0.215049 -0.087635 0.053465 0.656965 -0.162393 0.075022 -0.019823 -0.233025 -0.230243 0.057724 0.169383 -0.416296 -0.583353 0.124086 -0.095859 0.157935 0.375581 0.144416 -0.004745 -0.046788 -0.088025 0.270161 -0.118875 -0.062253 0.235913 -0.225769 0.001055 0.010907 0.116888 0.162538 0.000004 0.073015 -0.516695 0.052186 -0.119851 -0.053534 -0.288584 0.049603 -0.264062 -0.280421 -0.030678 0.010199 0.072724 0.171570 -0.216300 0.136409 -0.353264 -0.026996 0.036899 -0.482145 0.018769 0.190108 0.009237 0.160419 -0.007081 -0.472931 0.216649 0.197345 0.161608 -0.168830 -0.296011 0.420732 0.206608 0.035510 0.065749 0.126141 -0.431063 -0.228643 -0.012826 -0.551589 -0.025963 0.277867 0.027885 -0.003435 0.078879 -0.081688 -0.412154 0.282483 0.023171 0.293237 0.232508 0.141681 -0.280419 0.370174 0.078146 -0.198743 0.171451 0.088887 -0.067932 -0.101587 -0.045679 -0.544043 0.020905 -0.083937 0.144440 -0.083779 -0.217479 -0.038245 -0.154311 -0.264562 -0.228259 0.392285 0.244352 -0.381016 0.184945 -0.063395 0.084657 0.352635 -0.115808 -0.077720 -0.167856 -0.027787 0.159652 0.494197 -0.019608 0.181199 -0.311043 0.541015 -0.214124 -0.015908 0.440264 -0.136201 0.071420 0.213521 -0.067937 0.335019 -0.347756 -0.542217
1953 0.116509 0.148975 -0.539343 0.253260 0.062405 0.255512 -0.118192 -0.107243 -0.120699 -0.354088 -0.176802 0.112245 -0.317320 0.106818 0.276499 -0.169816 0.232424 -0.209165 0.043448 -0.211777 -0.283339 -0.303169 -0.009345 -0.353885 0.025631 0.211378 0.142571 0.189605 -0.227762 0.139330 0.143749 -0.085599 -0.273586 0.031745 0.052886 -0.036399 -0.098543 -0.115510 0.061950 0.113886 0.179356 -0.030911 0.005849 0.183485 0.027167 0.024250 -0.053049 0.208090 0.182425 -0.218812 0.321014 0.165053 -0.186018 -0.142346 0.272241 -0.106111 0.116813 -0.038328 -0.512118 0.200169 -0.167393 0.202657 0.058773 -0.010984 -0.232498 0.089756 -0.280979 0.209256 0.255377 -0.171959 -0.318702 -0.045771 0.011511 0.057447 0.217899 0.029369 0.006665 -0.040632 -0.062364 0.018235 0.335512 -0.135351 -0.247451 -0.023289 -0.150698 0.089192 -0.090971 0.189755 0.133264 -0.141529 0.038339 0.065410 0.242676 0.112751 -0.114992 -0.199625 0.337108 0.070899 -0.036691 0.120853 -0.094181 0.733585 -0.190072 -0.506809 0.017693 -0.279955 -0.221195 0.107207 -0.251622 -0.461075 0.013252 0.126016 0.045176 -0.013847 0.107152 -0.117618 -0.145733 0.531613 0.130377 -0.228122 0.134419 -0.312244 0.098349 0.259523 -0.312486 0.036776 -0.023489 -0.022899
1333 0.279098 -0.001510 -0.545153 0.104461 -0.018055 0.225787 0.065515 0.223977 0.035525 -0.165831 0.190932 -0.308289 -0.237862 0.158824 -0.194826 -0.240771 -0.110516 0.039248 -0.117336 0.020306 -0.421679 -0.549563 -0.395684 -0.190256 0.304429 0.164368 0.257638 -0.076009 -0.253363 -0.066498 0.308473 0.032910 0.070624 -0.274079 -0.105524 0.086871 -0.362064 -0.023924 0.216545 -0.125371 0.108977 -0.335705 -0.075890 -0.034587 -0.151990 0.187298 0.004736 0.296716 0.106168 -0.259729 0.448179 0.148112 -0.059121 0.193810 0.006276 0.003344 0.213428 0.101101 -0.042960 0.090896 -0.138334 0.056118 -0.227806 0.252334 0.125026 0.066380 -0.207929 -0.253084 0.192628 -0.089420 -0.025992 -0.272156 -0.168318 0.019563 0.115347 0.370402 -0.028673 -0.007122 -0.110121 0.127700 -0.385045 -0.056737 -0.125003 0.162383 -0.020893 -0.288827 0.281084 0.212718 0.187004 -0.197798 -0.091294 0.211746 0.274791 -0.213098 -0.346328 -0.176641 0.303600 0.350547 0.065961 -0.142510 -0.330319 0.405129 0.032229 -0.258675 0.130534 -0.099498 -0.002551 0.166724 -0.143694 -0.121778 -0.237353 -0.148335 -0.286913 0.042640 0.036367 0.027800 -0.128861 0.607572 -0.321195 -0.215230 0.247188 -0.070646 0.031966 0.009845 0.056750 -0.070246 -0.051691 -0.141251
739 -0.138958 0.033007 -0.109149 0.210009 -0.118922 0.071899 -0.117328 -0.383384 -0.178772 -0.003465 -0.190368 -0.068623 -0.680645 0.142264 -0.057148 0.043070 0.336480 -0.078767 -0.175454 0.122468 -0.276432 0.138968 -0.182679 0.026482 0.197848 -0.390774 0.080059 0.107403 0.220568 0.164002 -0.290023 0.072695 -0.484213 -0.074023 -0.318081 0.149658 -0.155362 0.299680 -0.465062 -0.354676 0.183577 0.138722 0.139795 -0.087957 -0.149173 -0.183181 -0.284708 -0.097005 0.239716 -0.583337 0.179835 0.074622 0.059823 -0.137567 0.139337 -0.223642 0.164942 -0.009327 0.168647 -0.328695 -0.349022 0.393218 0.121823 0.045685 0.237276 0.029355 -0.226497 -0.102055 0.009001 -0.381291 -0.331257 0.137578 0.052108 -0.048753 -0.032812 -0.356922 -0.126170 -0.036342 0.043260 0.150855 0.470082 0.355079 -0.040954 0.450845 -0.183990 -0.049227 0.098043 -0.132959 0.017252 -0.063615 0.118685 -0.536580 0.085705 -0.041931 0.219416 -0.121911 -0.075689 0.209989 -0.090682 -0.319609 -0.253770 0.280234 0.146860 -0.290283 0.131832 -0.127831 0.065130 0.318987 -0.154073 -0.001832 0.148403 0.015968 0.024141 0.128072 0.067415 0.058267 -0.416249 0.308464 -0.177401 -0.036592 0.574929 -0.192565 0.174462 0.158658 -0.230121 0.238301 -0.017571 -0.227675
1363 -0.097910 0.317051 -0.348281 0.307545 0.140778 0.030482 -0.155885 -0.037218 -0.199650 0.016984 -0.034013 -0.107287 -0.435233 0.041811 -0.194563 -0.084742 0.061259 0.215858 -0.285180 0.076263 -0.084969 -0.178040 -0.182077 0.027502 0.004382 0.086656 0.011358 0.136566 -0.028142 0.150539 -0.033512 0.147799 -0.097501 -0.024839 -0.306347 0.003759 -0.254449 0.133816 0.051142 0.115282 0.335651 -0.361957 0.271351 0.172956 -0.232732 0.048278 0.031240 -0.030446 0.333684 -0.249239 0.291315 0.131185 0.208575 0.065037 0.053884 -0.290641 -0.148170 0.078387 -0.133587 -0.004347 -0.079876 0.310621 -0.348262 0.151828 0.138728 0.138105 -0.387506 -0.207150 -0.084556 -0.198778 -0.134948 -0.507281 -0.178369 0.018159 0.062587 -0.045535 -0.126001 0.008642 -0.117712 -0.065059 0.274606 -0.074712 -0.235396 0.189522 -0.245872 0.390950 -0.143054 0.098172 0.205313 0.069300 -0.120310 -0.127623 0.354729 -0.122112 -0.218020 0.060453 0.279286 0.037101 0.369604 0.043188 -0.297352 0.594997 -0.349650 -0.345314 -0.015181 -0.042807 0.019198 0.260790 -0.099666 -0.320813 -0.297097 -0.212834 -0.408679 -0.146542 0.025989 0.020175 -0.029098 0.413839 -0.093165 -0.165806 0.062675 -0.199142 -0.081036 0.235372 -0.308035 0.191286 0.125253 0.072013
1955 -0.196235 0.382006 -0.502123 0.520100 -0.268369 0.187577 0.038584 0.056979 -0.025914 -0.107245 0.062363 0.058104 -0.154337 0.228612 -0.084240 -0.145636 0.112653 0.130690 -0.406620 0.030844 -0.053871 -0.347159 -0.265605 -0.396955 0.270481 0.083740 -0.200173 -0.092244 0.055779 -0.099051 0.163994 -0.055349 0.042440 -0.231222 0.038787 -0.111222 0.000920 -0.093594 0.040979 -0.212533 0.244038 -0.162731 0.081419 0.340198 -0.170796 0.013933 0.140841 0.060683 0.195699 -0.340213 0.151822 0.117865 0.044043 -0.175759 -0.110636 -0.085190 0.165611 -0.315311 -0.202579 0.095478 -0.182818 0.480690 0.267419 0.312342 0.248348 -0.048653 -0.219066 -0.199792 -0.338586 0.121549 -0.595543 -0.287520 0.266687 0.044535 0.231810 0.389824 -0.247488 0.039169 -0.179440 -0.251063 -0.148132 0.109891 -0.452082 0.236502 -0.147445 -0.020259 -0.091222 0.485407 0.248527 -0.374337 0.322657 0.239717 0.036371 0.083878 -0.137474 0.025780 0.393085 0.315533 0.026670 -0.119653 -0.145833 0.314396 -0.069602 -0.028362 0.008593 -0.007323 0.195226 0.343442 -0.108366 -0.137993 0.108947 0.083966 -0.190304 0.084015 0.037147 0.004653 -0.140816 0.445864 -0.184677 -0.436494 0.249113 0.266813 -0.145194 0.044495 -0.286194 -0.144452 0.099900 -0.056999
1584 -0.362532 0.370088 -0.275231 -0.088093 -0.025768 0.151104 0.176616 -0.030443 0.247333 -0.561348 -0.065961 -0.107382 -0.007087 -0.317895 -0.362504 0.013170 0.197142 0.024331 0.038615 -0.126251 -0.160439 0.246309 -0.243333 -0.346819 -0.273622 -0.374256 -0.105282 -0.027146 -0.288485 0.084747 0.472792 0.054780 -0.110031 -0.485775 0.161316 -0.253867 -0.345226 0.091675 0.447439 0.206219 0.205849 -0.198891 0.061974 0.061102 -0.322302 -0.312876 0.547017 0.244051 0.060306 -0.108035 0.229435 -0.147463 0.213731 0.355644 0.049203 0.133836 -0.029103 -0.038525 0.084727 0.183125 -0.142675 0.235884 0.128345 -0.349542 -0.052452 -0.031985 -0.250171 0.096818 0.019801 -0.461661 0.248981 0.198118 -0.391126 -0.189086 -0.207356 -0.189918 0.225194 -0.101792 -0.146883 0.062663 -0.086314 -0.073407 -0.072673 -0.254485 -0.372110 -0.049449 0.340704 -0.176436 -0.108848 0.020722 0.079647 -0.000112 0.108845 0.030600 0.007376 0.161306 0.337880 0.105877 -0.177005 -0.432080 0.244594 0.506587 0.022414 0.337984 0.066558 0.153121 -0.037115 0.174392 -0.119883 -0.090372 -0.026996 -0.073280 0.223164 0.232083 0.500639 0.464030 -0.218813 0.101074 0.061381 -0.277246 0.253101 -0.192486 -0.079865 0.003949 -0.390876 0.229524 -0.057494 -0.140954
192 -0.338537 0.037587 0.171256 -0.242487 -0.379119 0.165322 0.143712 -0.140147 0.052134 -0.315736 -0.323073 -0.195934 -0.110156 -0.484938 -0.311031 -0.178280 0.420016 0.274746 -0.307760 0.118567 -0.000307 -0.024683 -0.224521 -0.213067 -0.107153 -0.141465 -0.012742 0.140189 -0.106620 0.392722 -0.083408 -0.226396 -0.110918 -0.091530 0.258915 -0.562714 -0.372033 0.244143 0.045688 -0.175544 0.046345 -0.009290 0.147945 -0.455265 0.208991 -0.231781 0.076439 0.263510 -0.114319 -0.166469 -0.124337 0.177929 0.274983 0.169930 -0.199792 0.204311 0.147911 -0.350139 0.007057 0.084531 -0.143129 0.214621 0.080455 -0.365675 -0.302937 -0.126404 -0.166450 0.005136 -0.116167 -0.300565 -0.150228 -0.027817 -0.124441 0.153369 -0.096336 0.148342 -0.005467 -0.295484 -0.124209 -0.170671 0.016750 0.078322 -0.212875 -0.384827 -0.126265 -0.053838 0.057795 0.084830 -0.179100 -0.134159 0.294091 0.121389 0.138356 -0.139310 0.061007 -0.013198 0.536936 0.075818 0.058436 -0.240370 -0.069519 0.488374 -0.343168 0.030535 -0.545610 -0.115276 0.021904 0.090269 -0.180020 0.010815 -0.293759 -0.044960 -0.066129 -0.066002 0.417257 0.203047 -0.463846 0.184136 -0.320126 -0.451509 0.063899 0.051180 -0.177321 -0.223488 -0.057024 0.315172 -0.539039 0.104781
1922 0.025816 0.074468 -0.576520 0.346432 0.131411 -0.012905 0.027769 -0.149550 0.144647 0.146899 0.275970 -0.252313 -0.305896 0.166475 -0.135068 -0.070590 0.173486 -0.106247 -0.003989 0.003798 0.336171 -0.086161 -0.124824 0.000298 0.002886 -0.129770 -0.113505 0.034550 -0.157620 -0.118083 0.063671 -0.131000 -0.149171 0.105857 -0.203884 -0.245066 -0.275658 -0.082806 0.214036 0.091223 -0.108870 -0.127914 0.116963 0.160823 -0.113615 -0.225596 -0.158356 0.150745 0.266993 -0.499933 0.165095 -0.093197 0.326906 0.122597 0.114539 -0.339020 -0.198072 -0.363244 0.038492 -0.096367 -0.168280 0.309252 -0.087813 -0.005781 0.033073 -0.109066 -0.542216 -0.164977 -0.153282 -0.338707 -0.062250 -0.209847 -0.182228 0.014060 0.079342 0.106583 -0.271107 -0.107805 -0.040203 0.189157 -0.032312 -0.034006 -0.264526 -0.067495 -0.024332 0.033515 -0.004351 0.028085 -0.020419 -0.087793 -0.101968 -0.135428 0.081114 -0.020714 -0.219190 0.291888 0.255994 0.098868 -0.157620 -0.131804 -0.239416 0.341333 -0.176872 -0.140098 0.288391 0.013462 -0.297270 0.280468 -0.377728 -0.240704 -0.070376 -0.510508 -0.266151 0.125379 0.092089 -0.227720 -0.217039 0.281927 0.100710 -0.243878 0.268912 0.039259 -0.081869 -0.135138 -0.228214 -0.118464 0.003974 -0.527920
984 0.005078 0.261303 -0.573616 0.205887 -0.001726 -0.225043 0.005227 0.124016 0.046749 0.068603 0.230582 0.085358 -0.403846 0.290357 -0.188704 0.114073 0.028238 -0.195622 -0.196738 -0.128860 -0.063033 -0.064437 -0.393547 -0.098713 0.176317 -0.020655 -0.008198 0.069203 -0.252952 0.047456 0.080235 0.013690 -0.106966 0.020992 -0.110920 0.026238 0.053523 -0.025236 0.245249 -0.102724 0.235120 -0.132612 0.118538 0.120657 0.078518 -0.121110 0.036647 0.137405 0.302192 -0.153592 0.002039 0.074413 0.250478 0.191346 0.132262 -0.162343 0.472636 -0.244025 0.519831 0.146239 -0.096905 0.553538 0.194317 0.095685 -0.185554 -0.263817 -0.287111 -0.465878 0.159095 0.081202 -0.244763 -0.328121 -0.189338 -0.170426 0.247635 0.183857 -0.120028 -0.110507 0.044817 -0.164069 0.257356 -0.200151 -0.182300 0.002191 0.062717 0.045088 -0.067256 0.477339 0.227020 -0.182687 -0.034795 -0.061869 0.192828 0.103601 -0.571408 0.335934 0.201408 0.381643 -0.085053 0.145950 -0.163982 0.380329 -0.357151 -0.323233 -0.218614 -0.281396 -0.049746 0.061403 -0.016057 -0.369292 0.187015 -0.046011 -0.187393 -0.170055 -0.195638 0.090159 -0.240288 0.408791 -0.122611 -0.032773 0.128265 -0.137930 -0.025328 0.037656 -0.364133 0.089778 0.117172 0.028360
1410 0.066873 0.228632 -0.272508 0.127394 -0.101177 0.157333 -0.162633 0.251657 -0.096689 -0.121171 0.009212 -0.109379 -0.123230 0.020463 -0.035764 0.058466 0.004819 -0.418809 0.084585 0.011982 -0.124468 -0.181252 -0.308607 -0.344685 -0.127103 -0.058509 -0.112280 0.052386 0.336961 0.124753 -0.160979 0.117229 -0.263331 -0.124567 -0.233627 -0.160786 0.267318 -0.096331 -0.040757 -0.341363 0.175568 -0.208218 0.110154 -0.017402 -0.003699 -0.071682 0.019650 0.202420 0.145896 0.064124 -0.097111 0.206638 -0.152340 0.401667 -0.129624 -0.341677 0.046370 -0.083511 -0.065507 0.760267 0.109444 0.216994 0.289358 -0.090865 -0.476866 0.160012 -0.334726 -0.061268 0.023692 -0.205922 -0.175301 0.173168 -0.070773 0.029839 0.225902 0.049007 0.090065 -0.053103 -0.221790 -0.351531 -0.196899 -0.206828 -0.286234 0.075889 -0.016840 0.069274 -0.028488 0.311912 -0.089121 -0.306972 -0.024374 -0.032176 -0.074490 -0.023214 -0.336755 0.075340 0.181700 0.315532 -0.252183 0.176194 -0.205387 0.454918 -0.358668 -0.057314 0.013745 -0.082241 -0.025874 0.160656 0.152467 -0.303939 0.073920 0.077205 -0.235162 -0.068928 -0.119052 0.293591 0.059179 0.723941 0.043486 -0.311169 0.102930 -0.053130 -0.195988 0.115303 -0.581274 0.031552 -0.153301 -0.180170
103 0.177002 -0.113536 -0.231946 0.259918 -0.413087 0.077555 -0.479175 -0.103622 -0.201168 -0.021279 0.316590 -0.092392 0.011796 0.186901 -0.016642 0.218010 0.125351 -0.222231 0.073570 -0.224472 -0.077737 -0.307995 -0.226968 0.122086 0.154398 -0.179174 0.059613 -0.006924 -0.038847 -0.024130 0.207112 0.095012 -0.159400 -0.204132 -0.050876 -0.079274 0.154689 0.070104 0.475406 -0.390746 -0.153793 -0.370709 0.268711 0.039477 -0.157329 -0.406353 -0.061697 0.057329 0.337079 -0.031129 0.420629 -0.085222 0.057047 0.261858 0.098755 -0.042538 -0.055804 -0.196621 0.121078 0.028292 -0.122267 0.445775 0.204622 0.217856 -0.217647 -0.042430 -0.464215 0.028634 -0.232295 -0.302477 -0.258418 -0.234520 0.084484 -0.033192 0.172797 0.071660 -0.317823 0.043985 0.275255 0.015687 0.131333 0.050043 -0.509312 0.013432 -0.074460 0.063141 -0.191062 0.431868 0.185599 -0.284157 0.151542 0.247248 0.150593 -0.210044 -0.105159 0.062703 0.214043 0.265146 0.049033 0.078606 -0.086860 0.100399 0.037312 -0.262840 0.104281 0.165276 -0.056437 -0.050326 -0.544160 -0.360179 -0.055811 -0.110487 0.036541 0.152955 0.054211 0.106599 -0.293846 0.083997 0.216624 -0.474304 -0.096124 -0.124405 -0.187018 -0.152250 -0.165155 0.017942 -0.211590 -0.560880
106 -0.084233 0.019497 -0.652965 0.048639 0.010329 0.272312 -0.466019 -0.094153 -0.137025 -0.097850 0.218294 -0.154400 -0.406968 0.065679 -0.154350 0.183300 0.223439 -0.112824 0.073736 -0.047666 -0.012766 -0.283505 -0.210827 0.088904 0.378902 -0.111619 0.141936 0.013458 -0.010829 -0.045076 0.022918 -0.067089 0.171562 -0.037643 -0.060788 0.069491 -0.187035 0.008543 0.109751 0.071175 0.152292 -0.209189 0.191345 0.012218 -0.221110 -0.090803 0.002024 0.017686 0.306522 -0.268656 0.246045 0.019546 0.092530 0.150283 0.036916 -0.202551 0.092609 -0.211164 -0.123685 -0.050962 -0.035995 0.012518 0.035224 0.185967 -0.041704 0.146777 -0.455131 -0.149239 0.034414 -0.285997 -0.132547 -0.275907 0.018010 -0.064871 0.011154 -0.105668 -0.152239 -0.012622 -0.096332 0.044961 0.082708 -0.177105 -0.490087 0.033677 -0.153741 -0.192006 -0.005292 0.076413 -0.123388 -0.155662 -0.016359 -0.055655 0.340592 0.169568 -0.076592 0.220045 0.268651 0.021079 -0.067172 0.067103 -0.114656 0.370927 -0.213439 -0.325338 0.095641 -0.098564 -0.021046 0.197764 -0.277681 -0.243992 -0.433723 -0.069226 -0.156244 -0.042210 -0.114015 -0.061993 0.031827 0.480145 0.019024 -0.278915 0.248741 -0.073212 0.172511 0.213219 -0.365795 0.000605 0.301931 -0.461643
1116 -0.036729 0.124433 -0.595905 0.144373 -0.201619 0.314641 -0.154957 0.333192 -0.004717 -0.077416 0.149812 -0.364501 -0.150433 -0.009123 -0.276570 0.163822 0.275432 -0.195960 -0.000048 0.067680 0.017189 -0.001750 0.006445 0.450282 0.097797 -0.290821 -0.100550 0.034689 0.066351 -0.155011 -0.135937 -0.023463 -0.113644 0.143232 -0.165906 -0.045865 -0.282857 -0.113958 0.127114 0.136231 0.110105 -0.063855 -0.028673 0.164721 0.007089 0.147770 -0.040268 0.059288 0.352405 -0.221694 0.437337 0.287809 0.178261 0.161393 0.216341 -0.073213 0.101417 -0.321440 -0.086019 0.001239 -0.145517 0.225064 -0.051881 0.087642 -0.085204 -0.078899 -0.294337 0.202921 0.104000 -0.144275 -0.242803 -0.138979 -0.035491 0.070370 -0.002324 0.113841 -0.047314 -0.088622 0.251188 -0.052556 -0.230746 0.000525 -0.475973 0.252923 -0.176383 0.341486 -0.225675 -0.023417 0.050057 0.023128 -0.036613 -0.077499 0.039038 0.039894 -0.077471 0.101741 0.318735 0.194389 -0.060674 -0.214190 -0.103077 0.455999 -0.225500 -0.237368 0.274199 -0.217933 -0.059093 -0.031326 -0.069950 -0.479946 -0.382539 -0.123754 0.049327 0.029109 -0.123934 -0.066478 -0.052292 0.360059 -0.132542 -0.159048 0.138258 -0.280233 0.066478 -0.051840 -0.175134 0.247617 0.059297 -0.423869
947 -0.067025 0.071497 0.210879 0.444703 0.016917 0.081755 -0.088585 -0.266227 -0.385103 0.026686 -0.061885 -0.104756 -0.786167 0.180224 -0.018155 0.103055 0.313984 -0.114885 -0.073485 0.115327 -0.316355 0.323974 -0.136251 -0.104573 0.244540 -0.188268 0.136283 0.145517 0.277055 0.342840 -0.268649 0.127260 -0.664109 -0.031605 -0.499291 -0.047375 -0.026827 0.388858 -0.219793 -0.244177 -0.001221 -0.014711 0.167571 0.143087 -0.160783 -0.027027 -0.331459 -0.185714 0.153852 -0.450399 0.081164 0.230701 0.001851 -0.072016 0.005715 -0.349108 0.329429 0.126409 0.224963 -0.361161 -0.234981 0.477673 0.192774 -0.013234 0.083885 0.085020 -0.384853 0.021625 -0.227907 -0.518152 -0.295505 0.280553 0.014519 -0.107069 -0.022219 -0.152300 -0.348078 0.160853 -0.199952 0.062988 0.362734 0.060580 0.051308 0.370979 -0.165567 -0.040181 0.144242 0.066908 -0.157246 -0.087377 0.020676 -0.834057 0.172411 -0.054841 0.387874 0.037164 -0.001768 0.008682 -0.159999 -0.250766 -0.120593 0.520158 0.111866 -0.279591 -0.007108 -0.297124 0.173699 0.365219 -0.172043 -0.087502 0.025005 -0.020425 -0.018309 0.145385 -0.098563 0.377668 -0.232174 0.496923 -0.076637 -0.037364 0.415679 -0.117261 0.177249 0.108565 -0.033773 0.103337 0.096782 -0.261581
1511 -0.062148 0.288380 -0.586426 -0.093012 -0.210291 0.143551 0.086059 0.044786 0.027289 -0.043529 0.034747 -0.112418 -0.234794 0.054428 -0.072037 0.092024 0.199191 0.157360 -0.068323 0.089909 -0.032754 -0.396324 -0.147954 0.527538 0.086648 0.068561 0.213024 0.280946 -0.011504 -0.199185 0.222171 -0.022284 0.017932 -0.045402 -0.046267 0.088041 0.080517 0.272963 0.583735 0.118690 -0.079262 -0.017995 0.202150 0.208400 0.085946 0.094533 -0.156280 -0.180753 0.299108 -0.329239 -0.161276 0.322063 0.310431 -0.122433 -0.150934 -0.357889 0.283909 -0.161316 0.303100 0.092576 -0.093160 0.326699 -0.071007 0.171590 -0.123553 -0.235991 -0.124191 -0.127810 -0.180199 -0.313376 -0.352232 -0.171410 -0.034898 0.341210 -0.326819 0.101767 -0.075244 0.053294 0.196273 -0.330495 0.123913 0.086522 -0.423853 0.069201 -0.250659 -0.110651 -0.209625 0.306809 -0.147408 0.123331 0.033961 0.091005 -0.108447 -0.111214 -0.193292 -0.237606 0.025958 0.235263 -0.133051 -0.350264 -0.073884 0.592443 -0.051813 -0.388852 -0.103849 -0.060360 0.126639 -0.051689 -0.120231 -0.361238 0.071082 -0.161228 -0.224540 0.011780 0.185831 -0.007665 -0.014312 0.437365 -0.146857 -0.460284 0.013252 -0.101035 0.238139 0.173947 -0.082702 0.048544 0.167975 -0.452404
1328 -0.439469 0.254396 -0.211991 0.244315 0.090808 -0.007370 -0.228699 -0.071939 -0.064854 -0.404740 0.186981 0.080657 0.015825 -0.014923 0.221066 0.129182 -0.132709 -0.371884 0.117585 0.297550 0.197448 -0.034173 -0.106605 -0.341403 -0.266531 0.053030 0.530783 0.194927 0.068193 -0.186071 -0.026789 -0.244753 0.041112 -0.027316 -0.244819 -0.230960 0.265536 -0.399324 0.020813 0.042607 0.382356 -0.021055 0.249658 0.077317 0.271745 -0.098698 0.115175 0.269536 0.119816 -0.554663 0.282477 0.043809 -0.201592 -0.261389 0.004079 -0.054669 0.250729 0.175480 0.327303 0.471459 -0.129826 -0.003181 0.025508 0.010347 -0.074427 -0.359275 -0.017055 -0.064139 0.041852 -0.167392 -0.161326 -0.106133 -0.284521 0.028857 -0.026436 0.370131 0.024108 -0.161831 -0.303085 -0.014089 -0.074209 -0.244207 -0.205460 -0.079227 -0.619883 -0.151547 -0.045515 0.557866 -0.358016 -0.099697 -0.065663 -0.011680 0.267260 -0.016872 -0.084212 -0.234205 0.181462 0.305808 0.021508 -0.070013 0.024125 0.386700 0.114442 -0.478082 0.231335 -0.052184 0.076278 0.014451 -0.021213 -0.344599 -0.174897 0.112884 -0.071132 0.307904 0.049210 0.408639 -0.303737 0.367706 -0.372288 -0.219466 0.109926 -0.304974 0.170318 -0.095027 -0.313183 -0.192336 0.100494 -0.259041
389 -0.466346 -0.126285 0.147803 -0.423051 -0.356763 -0.019758 0.460008 -0.054030 -0.067988 -0.521238 -0.009787 -0.427251 -0.356425 -0.225645 -0.118573 -0.196224 0.503238 0.106882 0.042257 0.126826 -0.056070 -0.004964 -0.101580 0.054178 -0.333379 -0.008747 0.124276 0.043615 -0.010751 0.137856 -0.037129 0.056142 0.153088 -0.317383 0.087914 -0.466002 -0.126773 0.102567 -0.011890 0.192746 0.113182 0.167369 0.181445 0.137687 -0.251405 0.012303 -0.245987 0.298475 -0.020205 0.277460 0.004629 0.104779 0.247677 0.013606 -0.008112 -0.035694 0.252967 -0.205002 -0.282169 0.082193 -0.132584 0.237849 0.150497 0.149645 -0.177585 -0.080032 -0.131355 0.191455 -0.165851 -0.186633 -0.399562 0.101275 -0.114347 0.167758 0.121650 0.229331 0.043898 -0.282368 0.022362 -0.084414 -0.198152 -0.102026 -0.395178 0.180333 0.277334 -0.066141 0.038819 0.261849 -0.335604 0.184087 0.360836 -0.047868 0.248684 0.100519 0.067788 -0.034141 0.287977 -0.193185 -0.004925 0.009569 -0.053678 0.399293 -0.477940 -0.114297 -0.324413 0.019907 -0.102156 -0.005828 -0.178832 -0.031313 -0.064573 -0.012609 0.263480 0.007911 0.208976 0.291656 -0.263617 0.415083 -0.456745 -0.243066 0.046197 0.013878 -0.057733 -0.091836 -0.086912 0.184954 -0.004741 -0.173618
1078 0.033488 0.083245 -0.127676 0.689869 -0.093741 0.094745 0.037303 -0.191720 -0.169221 0.047387 -0.006776 -0.252705 -0.744452 -0.074528 0.058182 0.278660 0.375048 0.031123 0.062880 0.166827 -0.162942 0.105277 0.043175 -0.201480 0.363400 -0.265795 -0.123108 -0.006663 0.064114 0.065806 -0.272866 -0.034144 -0.515620 -0.114367 -0.424875 -0.034163 -0.235629 0.350674 -0.099672 -0.330373 -0.035498 0.000201 -0.112364 0.180702 -0.109656 -0.067881 -0.226606 -0.189500 0.131719 -0.673867 0.046991 0.448638 0.311728 0.031814 0.045854 -0.326890 0.141245 0.356916 0.219970 -0.181269 -0.023496 0.534713 0.092019 -0.051852 0.159346 0.447882 -0.306880 -0.274989 -0.043911 -0.377150 -0.372809 0.504512 0.089828 0.209432 0.025874 0.098068 -0.453969 0.202293 0.118509 -0.148361 0.317136 -0.059698 -0.167153 0.385915 -0.125832 -0.009482 0.354508 0.162795 0.271190 -0.385720 -0.142147 -0.287112 0.100675 -0.030293 0.380504 -0.119236 0.112108 0.018703 -0.142050 -0.325776 -0.433901 0.588417 0.357115 -0.308463 -0.185910 0.024574 0.189635 0.134971 -0.152858 0.045419 -0.071944 -0.067637 -0.041792 0.457719 -0.169397 0.353892 -0.286084 0.557189 -0.021626 -0.054483 0.452703 -0.002579 -0.219120 0.241064 0.018607 0.198776 -0.469168 -0.381023
1488 -0.011606 0.250567 -0.138156 0.079198 -0.249699 -0.225619 0.164630 0.046925 -0.407475 0.134419 -0.090130 -0.259954 -0.286641 0.256948 -0.481243 -0.367015 0.444424 0.000720 0.104328 0.285685 -0.045211 -0.032150 -0.280741 -0.091399 0.054026 -0.028101 -0.169819 -0.208507 0.373626 0.116729 -0.055778 -0.171690 -0.504021 -0.054721 0.188774 0.005671 -0.123788 0.176512 0.101447 -0.328192 0.095251 0.155689 0.195371 0.344501 -0.038421 -0.336244 -0.185992 -0.145004 0.251529 -0.345528 -0.079612 0.146919 -0.258023 0.439246 -0.148600 -0.096516 0.073945 -0.180333 -0.313050 0.017838 -0.063476 0.454746 0.042477 -0.064037 -0.188469 0.364324 -0.345088 -0.187288 0.135577 0.054248 0.271515 0.048524 -0.329735 0.322918 0.177256 -0.273003 0.184355 0.147448 -0.125438 0.463588 0.421351 0.087014 -0.293134 0.343725 -0.246878 -0.132453 0.140159 0.095025 -0.017996 -0.314581 -0.050440 -0.073847 0.165715 0.208220 -0.333897 -0.320562 -0.100533 0.223021 -0.009375 0.228661 -0.153237 0.238081 0.350352 -0.504453 0.035326 -0.034833 0.196684 0.350837 0.186522 -0.298730 -0.244574 -0.110112 -0.221440 0.275837 -0.130096 0.317176 -0.340701 0.067475 0.289915 0.074823 0.055946 0.130348 -0.304448 -0.129142 -0.370035 -0.052037 -0.602794 -0.268534
